<?xml version="1.0"?>
<opencv_storage>
<my_svm type_id="opencv-ml-svm">
  <svm_type>C_SVC</svm_type>
  <kernel><type>LINEAR</type></kernel>
  <C>1.0000000000000001e-001</C>
  <term_criteria><epsilon>2.2204460492503131e-016</epsilon>
    <iterations>100000</iterations></term_criteria>
  <var_all>1764</var_all>
  <var_count>1764</var_count>
  <class_count>3</class_count>
  <class_labels type_id="opencv-matrix">
    <rows>1</rows>
    <cols>3</cols>
    <dt>i</dt>
    <data>
      -1 1 2</data></class_labels>
  <sv_total>3</sv_total>
  <support_vectors>
    <_>
      1.63630433e-002 3.19118431e-006 -8.58864840e-003 2.14015245e-002
      -3.37712727e-002 -6.60220832e-002 -3.71929705e-002
      -5.14049968e-003 -3.83111718e-003 7.71134743e-004 -3.66532542e-002
      -2.40970794e-002 2.71401424e-002 3.02944537e-002 -5.73291779e-002
      -4.57480699e-002 -1.75443105e-002 1.78195126e-002 6.60819048e-003
      -1.60362236e-002 -7.08275894e-003 8.55717808e-003 -6.20004442e-003
      -5.09569347e-002 -6.21991698e-003 6.60057878e-003 -8.52914620e-003
      -8.32849741e-003 -3.61718163e-002 1.39213745e-002 -1.15784127e-002
      -2.05211863e-002 -7.06958994e-002 -4.98150624e-002
      -1.32619990e-002 -6.39230805e-003 4.90076607e-003 -4.08589318e-002
      -2.24014483e-002 3.90347019e-002 4.55018878e-002 -1.65834744e-002
      -3.05076111e-002 1.92028470e-002 2.80308928e-002 -3.05511113e-002
      -3.09216715e-002 -1.59277599e-002 4.05900851e-002 -2.17749341e-003
      -1.01838738e-003 -3.14240716e-002 4.71821576e-002 2.11582836e-002
      3.30332033e-002 1.30411694e-002 7.33940816e-003 3.56215537e-002
      2.17781756e-002 -6.53027818e-002 -8.38631094e-002 9.08358768e-003
      3.53661776e-002 -1.81253459e-002 -3.25072035e-002 -5.54665029e-002
      1.79825746e-003 5.10571757e-003 -8.67520925e-003 -1.00446008e-001
      -4.04362269e-002 -1.45969857e-002 1.50278839e-003 3.61805875e-003
      2.10241973e-002 2.32919659e-002 3.04235164e-002 1.99615825e-002
      3.15648094e-002 2.72344053e-002 1.56529564e-002 -2.84622870e-002
      -3.76450755e-002 3.69272707e-003 -7.22372264e-004 3.32705751e-002
      3.07952184e-002 4.77459952e-002 3.43205445e-002 -8.74815695e-003
      1.91875417e-002 -5.78570133e-003 -5.36723807e-003 1.52056115e-002
      3.88903357e-002 9.01623629e-003 -6.33283034e-002 -4.15924229e-002
      -5.37021225e-003 -3.15825641e-002 -7.97061324e-002
      -4.25759144e-002 -1.41764376e-002 3.06983339e-003 3.31252534e-003
      -2.53478605e-002 -2.73328722e-002 -5.95292561e-002
      -2.47631092e-002 -3.77461724e-002 -2.05890462e-002
      -1.95578374e-002 8.14911053e-002 9.34554450e-003 3.24317478e-002
      -3.89177911e-002 -3.91758494e-002 -6.13737404e-002
      -4.88520483e-004 6.60712831e-003 4.46947105e-002 1.07786223e-001
      6.72182068e-002 -4.51037213e-002 -6.29517511e-002 -7.98984021e-002
      -5.53545766e-002 -7.08892271e-002 -3.35851833e-002
      -4.93570231e-004 5.25592864e-002 2.38126405e-002 -4.10903543e-002
      9.01413616e-003 -4.03278992e-002 -9.50817317e-002 -2.75206864e-002
      2.54377183e-002 2.31990479e-002 6.84384033e-002 2.77071409e-002
      -6.00810014e-002 -5.00709340e-002 -9.76743549e-002
      -5.10647073e-002 -5.91535214e-003 1.15109682e-002 2.94167195e-002
      1.44666165e-001 6.15161881e-002 -2.53615435e-002 -1.12791695e-001
      -1.07878417e-001 3.84517908e-002 2.64316499e-002 3.01836301e-002
      1.31039293e-002 1.03885554e-001 5.60892299e-002 3.26657295e-002
      -4.12396044e-002 -1.69616695e-002 -9.44813117e-002
      -5.44756688e-002 -2.66424883e-002 -9.61849280e-003 9.13837925e-002
      1.83895964e-003 -1.00709744e-001 -1.05027020e-001 -1.08547978e-001
      1.66705009e-002 -1.92792639e-002 -1.76642910e-002 -7.18082115e-003
      6.18403479e-002 4.87049930e-002 -5.83991781e-002 -1.91870518e-002
      -3.84521559e-002 4.85489331e-002 4.25631143e-002 2.46783681e-002
      6.28545741e-003 3.85821164e-002 -3.06592900e-002 -2.76171397e-002
      -6.73454627e-002 -3.70385386e-002 6.49887472e-002 4.55090366e-002
      4.53727767e-002 3.75236720e-002 5.52696660e-002 3.74268219e-002
      -9.35053825e-003 2.84277461e-002 2.05900185e-002 3.40571394e-003
      1.81457512e-002 8.30717909e-004 2.56172963e-004 4.64066118e-003
      -3.85315754e-002 -5.12309708e-002 -1.44354245e-002
      -2.65402161e-002 1.53778838e-002 3.84475030e-002 2.91200336e-002
      4.84880768e-002 2.79571414e-002 -2.23413925e-003 3.64486390e-004
      -2.57796738e-002 2.13424792e-003 3.34295966e-002 2.28976011e-002
      3.53524946e-002 2.73731425e-002 1.48781585e-002 2.56845765e-002
      -3.58704552e-002 -5.72906882e-002 -3.35773788e-002 4.89524938e-002
      5.96591793e-002 3.54367569e-002 5.07298950e-003 7.97039922e-003
      4.91936039e-003 -5.62377274e-002 -4.14746590e-002 9.27686598e-003
      3.57206501e-002 3.68516482e-002 2.40142215e-002 3.52108032e-002
      -2.81662354e-003 3.32776643e-002 -4.92365845e-002 -5.60642220e-002
      -1.67909414e-002 3.36357616e-002 5.75840510e-002 3.28208096e-002
      1.34513350e-002 -8.17727298e-003 -6.06057560e-003 -7.53185377e-002
      -7.91323110e-002 -2.98304148e-002 1.92125570e-002 1.97069701e-002
      2.16694586e-002 5.51885320e-003 -3.43886018e-002 -2.65835356e-002
      2.58028675e-002 1.87225230e-002 3.04445531e-002 2.03773919e-002
      8.32747493e-004 3.34796906e-002 -1.75540987e-002 1.50109809e-002
      -2.45228410e-003 -2.58646701e-002 3.12371156e-003 1.23238908e-002
      -8.77202768e-003 1.66648589e-002 1.52501399e-002 -1.68243404e-002
      -3.54117863e-002 -3.36878486e-002 4.85191849e-004 4.55940627e-002
      -1.12348674e-002 -4.48167045e-003 -1.42431324e-002
      -3.33849266e-002 -5.96929118e-002 8.70723501e-002 -1.43315205e-002
      -1.66418664e-002 6.79718982e-003 -1.17595419e-002 3.17732133e-002
      2.02150904e-002 1.21349534e-002 4.04684991e-002 1.06909990e-001
      6.56991974e-002 1.85729619e-002 3.93560231e-002 4.16531488e-002
      5.45411594e-002 2.11217301e-003 -4.61851135e-002 -1.09210610e-002
      8.74225721e-002 3.53331380e-002 -7.00395927e-002 -2.48223227e-002
      3.15018073e-002 -2.25555457e-004 -3.81770395e-002 -4.46623750e-002
      2.85413489e-003 8.50521922e-002 7.06939176e-002 6.48731086e-003
      2.20576636e-002 2.36344934e-002 6.00890117e-003 -1.14520930e-001
      -1.19802602e-001 -5.21203466e-002 2.36146636e-002 1.14374943e-002
      -1.04213662e-001 -4.71111760e-002 -6.86568068e-003 7.28906319e-002
      2.73069423e-002 -1.36159677e-002 5.20219421e-003 1.46522149e-001
      4.12986353e-002 -3.11892182e-002 -2.52871867e-002 5.35727367e-002
      3.40766497e-002 -2.09398363e-002 -4.06496152e-002 3.58031988e-002
      7.77660459e-002 3.56133580e-002 -1.07965516e-002 2.68654861e-002
      3.31347957e-002 1.64469630e-002 -5.37498817e-002 -3.55600156e-002
      -2.18485352e-002 5.78840710e-002 -3.19964401e-002 -5.11303358e-002
      -5.35899550e-002 5.93662309e-003 -4.21324885e-003 -4.49255072e-002
      -5.86583950e-002 5.79730608e-003 5.52543215e-002 -4.67143813e-003
      -3.65454145e-002 -6.14819564e-002 -7.24107260e-003
      -3.15478258e-003 -3.41196544e-002 -4.95065702e-003 3.15436907e-002
      4.26610596e-002 -5.06876074e-002 -5.10585532e-002 -1.42950295e-002
      1.58569533e-002 1.58993304e-002 2.45238915e-002 6.11390136e-002
      7.40743950e-002 8.20596740e-002 -7.74945365e-004 -4.60110642e-002
      -5.73813403e-003 1.02660228e-002 -5.55199571e-003 -5.43790543e-003
      -2.03181207e-002 4.42967005e-002 5.70989773e-003 -8.67338851e-002
      -7.18845800e-002 -7.41652474e-002 -2.02865303e-002 2.66376045e-002
      2.73249298e-002 4.11273465e-002 9.65897068e-002 3.30005512e-002
      -9.73844752e-002 -9.65218022e-002 -5.32586426e-002 1.71987489e-002
      -4.72729765e-002 -2.59296577e-002 2.56930385e-002 5.53231984e-002
      9.61549580e-002 -8.10046643e-002 -6.75059631e-002 -7.32106017e-003
      -1.87975429e-002 2.78741550e-002 -1.37581071e-002 1.73636191e-002
      5.47616072e-002 7.65649229e-002 7.21225841e-003 -2.15584710e-002
      6.14402667e-002 5.03751189e-002 -1.79323629e-002 -9.85310134e-003
      2.39849128e-002 1.00634843e-001 2.80190967e-002 -1.64778695e-001
      -1.14034310e-001 -2.87770890e-002 -1.85142681e-002
      -7.35213840e-003 -1.87527575e-002 4.10674550e-002 8.40157121e-002
      1.81298722e-002 -6.60981312e-002 -5.76828830e-002 2.12633274e-002
      7.01547647e-003 7.73235550e-003 -8.72014789e-004 2.26440635e-002
      5.06729186e-002 6.54708073e-002 -1.10944308e-001 -4.38067093e-002
      -1.72241521e-003 4.51081054e-004 3.25061642e-002 1.57097969e-002
      3.32061835e-002 6.75878823e-002 1.15897395e-001 -1.40323825e-002
      2.42420603e-002 1.31149520e-003 3.03966086e-002 -3.09693459e-002
      -2.90830322e-002 3.00381333e-002 7.47222453e-002 -1.73674375e-002
      -1.34651199e-001 -1.14656672e-001 2.22184248e-002 -8.73780251e-003
      5.63600622e-002 2.92819031e-002 4.82677743e-002 8.67881328e-002
      6.08365126e-002 -1.18336596e-001 -4.09985296e-002 5.11363372e-002
      6.97051287e-002 2.35011131e-002 2.68665422e-002 1.32923871e-002
      2.69389097e-002 -2.07270193e-003 -2.23123021e-002 -8.22957754e-002
      -1.04407057e-001 -2.16870084e-002 9.88468621e-003 4.60601151e-002
      5.03035784e-002 4.13311720e-002 2.17437074e-002 -3.40860821e-002
      -7.99809098e-002 -7.79159069e-002 -2.25521866e-002 4.94847298e-002
      2.61376761e-002 1.64128803e-002 1.92501210e-002 -3.56908776e-002
      -5.21448143e-002 -7.52724633e-002 -1.11842575e-002 2.81988624e-002
      4.95952219e-002 6.71101213e-002 7.44834542e-002 1.05871864e-001
      2.59291064e-002 -1.66312288e-002 -6.21617697e-002 2.18353304e-003
      1.78716779e-002 -3.56439315e-002 -1.63933858e-002 2.80846860e-002
      9.19666328e-003 1.06402797e-004 -9.29591712e-003 3.09778042e-002
      2.14258712e-002 -5.33400588e-002 1.51289515e-002 3.17490567e-003
      1.13567291e-002 -4.60229069e-002 2.39039538e-003 -2.51184888e-002
      3.68266590e-002 -1.19673386e-002 -2.78126840e-002 -3.92616168e-002
      -1.52271772e-002 2.39862781e-002 1.35039017e-002 3.57678942e-002
      -6.96694042e-005 -4.90893098e-003 8.55918881e-003 -2.94355731e-002
      3.08098681e-002 4.65478674e-002 7.42215291e-002 -1.53833115e-003
      2.75615626e-003 -2.93559786e-002 3.12750377e-002 2.95211133e-002
      2.86448337e-002 5.21918312e-002 1.02754030e-002 8.05893634e-003
      1.26185711e-003 1.85037032e-002 5.92883155e-002 7.56194666e-002
      3.08447331e-002 4.29069996e-002 4.49041240e-002 -1.60347112e-002
      -3.02452166e-002 -5.92165627e-002 -6.56888708e-002 1.63885616e-002
      -5.92631809e-002 -9.89078358e-003 7.31046731e-003 7.57800043e-002
      7.68467337e-002 7.93773681e-002 -2.03603189e-002 -7.14028403e-002
      7.51279481e-003 7.64724910e-002 5.39099313e-002 7.80623034e-002
      6.10986948e-002 5.56989722e-002 1.23602599e-002 -6.70910925e-002
      -6.35493249e-002 -1.46897603e-002 1.74599178e-002 -4.35163779e-003
      3.45315896e-002 2.29248661e-003 -4.02620584e-002 -9.77521576e-003
      -5.93180023e-003 2.18131822e-002 -9.06704227e-004 -2.45995410e-002
      -3.84108722e-002 -2.80993879e-002 2.28506490e-003 -2.63677612e-002
      -8.38689134e-003 5.14900386e-002 5.11306226e-002 1.83032285e-002
      -1.74579825e-002 -6.58022463e-002 -4.83396277e-002 4.45459932e-002
      2.88960561e-002 2.26789415e-002 2.47985264e-003 2.07000077e-002
      -5.38935279e-003 4.59731650e-003 -6.95269927e-003 -1.64646544e-002
      8.41090456e-003 8.85624811e-003 1.36020901e-002 2.68646888e-002
      3.74218598e-002 1.76144931e-002 -9.35663935e-003 -3.01856864e-002
      -5.48123233e-002 1.62759461e-002 1.31887244e-002 4.22047451e-003
      6.77184016e-002 5.13693802e-002 -3.29262726e-002 -7.36916717e-003
      -7.76932165e-002 -1.06429420e-002 2.82734856e-002 2.38260012e-002
      5.56378029e-002 8.48558396e-002 8.36083442e-002 -8.14196393e-002
      -6.00885339e-002 -6.94605336e-002 8.33201688e-003 -8.01103283e-003
      -6.73986506e-003 1.98882893e-002 2.92368662e-002 4.17462513e-002
      -4.17082086e-002 -1.02160610e-002 -7.99002498e-002
      -6.38031811e-002 7.73957744e-003 3.90234520e-003 4.50851955e-002
      3.10840998e-002 6.08174969e-003 -1.07113600e-001 -6.05240688e-002
      -1.10842153e-001 -4.29616757e-002 1.15725128e-002 1.44382529e-002
      5.70972487e-002 8.43584836e-002 7.30156898e-002 -1.12417713e-001
      -8.15976933e-002 -4.25823480e-002 1.00445608e-002 3.12223844e-002
      3.72046717e-002 5.43216169e-002 8.95388946e-002 6.42140880e-002
      -2.33970191e-002 -1.54434485e-004 5.57052270e-002 2.34588590e-002
      -4.28471118e-002 -3.77827324e-002 -3.00325919e-003
      -1.99826621e-002 -1.14570130e-002 -1.23684920e-001
      -1.07999988e-001 -8.16094950e-002 -5.59877083e-002
      -9.33530256e-002 -7.65959397e-002 -1.92791112e-002 4.39136522e-003
      1.65586993e-002 -2.55878288e-002 -1.00817578e-002 -2.41536181e-002
      -1.05777763e-001 -3.60489674e-002 8.41716025e-003 -3.15224286e-003
      1.93594396e-002 -1.98568199e-002 -1.41820520e-001 -6.14502132e-002
      1.57179628e-002 -2.12630406e-002 5.43386191e-002 4.59704474e-002
      2.98344158e-002 8.31265524e-002 6.69158399e-002 -9.36015397e-002
      5.05720079e-003 8.26702565e-002 6.36815652e-002 -9.70930085e-002
      -6.95332140e-002 -3.07450220e-002 -5.98785467e-003
      -6.08426780e-002 -1.15320615e-001 -6.12913966e-002
      -2.51765735e-002 -9.36656222e-002 1.69323217e-002 1.08585563e-002
      3.44774127e-002 9.01755616e-002 1.54785430e-002 -7.22987726e-002
      5.75101599e-002 1.34347871e-001 4.51450497e-002 3.88307981e-002
      2.69591510e-002 2.11309642e-002 3.10398415e-002 -5.39426841e-002
      -1.03402153e-001 -9.25026312e-002 4.94242064e-004 2.12223046e-002
      3.71833779e-002 4.97316644e-002 5.03589548e-002 7.86743537e-002
      -3.79004574e-004 -4.54464294e-002 -4.99124713e-002 2.88775358e-002
      2.45116670e-002 1.25784371e-002 -6.41770288e-003 -1.96360343e-004
      5.66016100e-002 -3.39477919e-002 -5.85533753e-002 -6.38779104e-002
      3.47422957e-002 2.71543153e-002 1.18004940e-002 1.74399354e-002
      2.66259424e-002 3.39268222e-002 -8.25169235e-002 -7.08694458e-002
      -2.22780816e-002 2.18472928e-002 5.31793684e-002 -2.47183256e-002
      3.25590037e-002 6.01027682e-002 6.20031357e-002 4.88125309e-002
      -3.54008414e-002 -1.65548443e-003 -1.90086965e-003
      -1.36466101e-002 -1.19785797e-002 4.93284613e-002 8.00604373e-002
      2.15066057e-002 -2.59829336e-003 1.37236854e-003 9.02725477e-003
      6.97724428e-003 -9.99734830e-003 -5.11926822e-002 5.39757349e-002
      7.41655529e-002 8.42798576e-002 8.86887088e-002 -1.93770844e-002
      -1.54024623e-002 3.56396125e-003 -1.81669742e-002 -5.38535640e-002
      1.86399482e-002 5.86027503e-002 -2.75846757e-003 8.97514913e-003
      -2.45016254e-002 -4.49335021e-005 3.06320190e-002 -2.02413034e-002
      2.64898185e-002 5.59117123e-002 8.30452591e-002 -1.34212440e-002
      -6.32516146e-002 -2.79284678e-002 6.65446147e-002 4.50862423e-002
      3.64706889e-002 3.80716845e-002 3.60466577e-002 5.09416275e-002
      -5.01043834e-002 -1.02770969e-001 -3.87262553e-002 5.55991903e-002
      3.80567200e-002 4.40429784e-002 7.62283709e-003 3.78960483e-002
      7.27586523e-002 3.26703908e-003 -5.56262359e-002 -6.96182891e-004
      6.49824366e-002 8.97922516e-002 1.35155059e-002 4.40241620e-002
      3.67104709e-002 6.44975007e-002 -3.10786869e-002 -9.50873122e-002
      -7.60677382e-002 5.02918251e-002 5.37318476e-002 6.69094026e-002
      1.70618035e-002 1.56048881e-002 1.81195922e-002 -5.68028539e-002
      -1.11928128e-001 -4.08841670e-002 7.72621036e-002 1.34492302e-002
      2.24407157e-003 -1.65645499e-002 2.49006562e-002 7.93580338e-003
      -3.15581635e-002 -4.20722812e-002 1.47646647e-002 2.67444272e-002
      -1.76976398e-002 -4.88170534e-002 3.01673505e-002 2.50234734e-002
      4.62242067e-002 -9.33749899e-002 -1.22107513e-001 -2.64338851e-002
      1.18672185e-001 7.66647831e-002 6.09424226e-002 3.55281010e-002
      4.71260622e-002 4.54630703e-002 -5.38639165e-002 -5.75799160e-002
      3.64570394e-002 1.17263921e-001 5.85632846e-002 5.19098490e-002
      3.29100876e-003 3.44846062e-002 2.90620942e-002 3.71772014e-002
      2.07380578e-002 1.35201439e-002 2.37910710e-002 -5.56721650e-002
      -5.78139573e-002 1.07888412e-002 3.70693393e-002 2.52713878e-002
      -1.41398646e-002 -5.96405454e-002 -1.28158182e-001
      -5.80518134e-002 -8.75356942e-002 -7.39132315e-002 4.71342616e-002
      6.47628680e-002 5.92067279e-002 2.79159676e-002 -3.36669423e-002
      1.59551352e-002 7.18188807e-002 3.17406207e-002 5.44565544e-002
      3.19299288e-002 4.78186607e-002 4.80817892e-002 -3.51573266e-002
      -7.42421895e-002 -6.45740181e-002 2.41015460e-002 -2.82234829e-002
      -9.37247183e-003 7.21443631e-003 2.87130252e-002 3.69847864e-002
      -1.11951586e-003 -1.76917501e-002 -9.65262428e-002
      -3.86158265e-002 -7.72062019e-002 -5.54832742e-002
      -6.05083928e-002 -2.91989595e-002 3.34338285e-002 4.14656177e-002
      4.69161198e-003 1.70270819e-002 3.09945960e-002 -5.09561300e-002
      -9.77420956e-002 4.04308438e-002 4.11451310e-002 5.50337620e-002
      -3.09328884e-002 -8.05552527e-002 -5.09127080e-002 2.03520283e-002
      -3.81580964e-002 -2.80353390e-002 1.57814249e-002 4.72459383e-002
      4.81883772e-002 1.19918678e-002 -7.01007247e-002 4.66688769e-003
      5.23798577e-002 -2.08197907e-002 -4.20873091e-002 -1.08857416e-001
      -7.37813786e-002 -2.16658246e-002 8.06520320e-003 -6.16600923e-002
      -1.25527993e-001 1.98634397e-002 -2.19639093e-002 -1.01117916e-001
      3.58155556e-003 -7.81982392e-003 2.45390125e-002 8.93608183e-002
      -3.33237536e-002 -5.42614497e-002 8.54041874e-002 1.10514373e-001
      3.41756158e-002 -6.06905902e-003 -3.32760130e-004 1.68714412e-002
      -3.66617274e-003 -1.04911976e-001 -1.08710133e-001 2.17728298e-002
      -3.77559662e-003 -2.06877030e-002 4.09272350e-002 2.70227958e-002
      5.68902567e-002 8.67332593e-002 -5.93115687e-002 -6.11638241e-002
      1.12709813e-001 7.82638714e-002 6.24916852e-002 -5.09084156e-003
      4.66219941e-003 1.30019858e-002 5.15830517e-002 -3.34955230e-002
      -6.23279884e-002 -1.66511852e-002 6.43746406e-002 1.48049546e-002
      2.52704099e-002 3.33395265e-002 2.48155128e-002 9.86910705e-003
      -1.20815495e-002 -3.81742977e-002 9.79939103e-003 2.32247170e-002
      4.22272272e-002 4.67906334e-003 1.70287527e-002 1.56842079e-002
      3.71457227e-002 -7.52079561e-002 -5.74909449e-002 -7.29050068e-003
      5.54527603e-002 2.62822676e-002 -3.81670590e-003 1.24164503e-002
      2.40783789e-003 1.15520665e-002 -3.72581743e-002 -2.39836052e-002
      -3.42826396e-002 1.93227101e-002 2.06702086e-003 -8.65575969e-002
      7.59028457e-003 4.14581969e-002 4.05585952e-002 6.65657297e-002
      -1.27439806e-002 -2.01406181e-002 -3.44286039e-002
      -4.16949205e-002 -8.21086466e-002 -1.56044029e-002 1.79372355e-002
      2.49054981e-003 -4.98643052e-003 -4.34393845e-002 -2.37867236e-002
      -2.74443440e-002 -5.18245548e-002 -3.77125591e-002
      -2.69054016e-003 2.44242065e-002 3.93553823e-002 3.00045833e-002
      -1.96360964e-002 -2.07715090e-002 4.79254173e-003 -1.61652174e-002
      -3.68912220e-002 2.84287118e-004 1.78754460e-002 2.96924487e-002
      -7.74383219e-003 -1.08407419e-002 -3.53398137e-002
      -3.89379188e-002 -6.56640902e-003 -6.93275034e-003 1.74280256e-002
      3.43302488e-002 2.60470528e-002 -7.97111988e-002 -3.85365821e-002
      3.11240740e-002 3.48739699e-002 3.64548806e-003 1.74487364e-002
      1.34601640e-002 3.37748677e-002 -2.57935766e-002 -1.46265969e-001
      -1.20756514e-001 -3.78391445e-002 -9.57369246e-003 7.24389544e-003
      9.03371908e-003 8.51503201e-003 1.49937067e-002 2.57216692e-002
      5.70009882e-003 -2.61775292e-002 6.13032561e-003 6.52370676e-002
      5.20189814e-002 1.23990420e-002 4.21199799e-002 2.97854505e-002
      -1.34512726e-002 -3.56033891e-002 -4.43310030e-002
      -3.76281403e-002 2.87175011e-002 2.29712091e-002 2.35426407e-002
      3.88128087e-002 5.25470637e-002 -8.15595090e-002 -1.29444212e-001
      -7.70934043e-004 5.68252131e-002 5.12469448e-002 3.70313823e-002
      2.46291272e-002 3.79923768e-002 5.35157882e-002 -6.40175566e-002
      -1.33402556e-001 -3.18901874e-002 8.04460645e-002 4.99985181e-002
      4.13494892e-002 4.97294292e-002 7.93695822e-002 5.99202774e-002
      -1.06577100e-002 -4.32909057e-002 -1.25600947e-002
      -2.30878145e-002 3.97067405e-002 4.15547639e-002 3.14607695e-002
      5.49070798e-002 3.81937213e-002 -4.19740789e-002 -9.24562067e-002
      -2.48160698e-002 1.00151831e-002 -1.20633831e-002 -1.66928384e-003
      4.54297625e-002 4.22117859e-002 5.51743992e-002 -1.88299071e-003
      -1.00794308e-001 -3.59026976e-002 9.72213373e-002 5.16561605e-002
      4.15504165e-002 3.10324840e-002 1.49552273e-002 5.70702516e-002
      -2.81695724e-002 -1.04704328e-001 -6.21019639e-002 5.59069179e-002
      9.62427165e-003 2.36898400e-002 3.08162365e-002 2.43641064e-002
      2.49364190e-002 -2.50129607e-002 -8.98346826e-002 -3.59590910e-002
      3.33155617e-002 -1.26529662e-002 3.21526192e-002 3.08314860e-002
      9.33724083e-003 1.77828167e-002 -6.53684512e-002 -8.98745656e-002
      -6.53822497e-002 2.27598101e-002 1.41250929e-002 1.40749617e-002
      1.66442636e-002 8.42558406e-003 1.97780188e-002 -5.44989035e-002
      -9.39821303e-002 -2.46709716e-002 6.80391863e-002 1.80731062e-002
      1.17519300e-003 4.18771151e-003 2.62013320e-002 3.58141400e-002
      -3.36813740e-002 -8.49431902e-002 -5.23893442e-003 7.30621666e-002
      3.98663543e-002 -7.40180165e-003 2.11555678e-002 1.55519675e-002
      1.76502150e-002 -7.70300403e-002 -9.77946892e-002 -6.01841137e-003
      3.71839404e-002 3.73164639e-002 4.78047691e-003 9.62110888e-003
      2.02747546e-002 -4.68830578e-003 -8.51840898e-002 -8.43433365e-002
      3.87540422e-002 7.38397390e-002 4.44596633e-002 -9.85309854e-003
      2.36558914e-002 4.42839488e-002 5.30855916e-002 -2.14255843e-002
      -1.64795250e-001 -1.07468739e-001 6.00391775e-002 3.11423689e-002
      3.83337028e-002 6.56107366e-002 5.89742959e-002 1.03071637e-001
      6.86097145e-002 -1.11623995e-001 -3.48426662e-002 1.44935846e-001
      9.09282491e-002 9.44707990e-002 1.37072280e-002 2.15171296e-002
      6.75581302e-003 -1.23598628e-001 -1.76845670e-001 -7.75272772e-003
      9.64443684e-002 3.80026475e-002 2.65791197e-003 7.43302554e-002
      5.08136824e-002 6.49692118e-002 -2.32706908e-002 -9.23593044e-002
      4.02538404e-002 1.56953290e-001 1.27750814e-001 9.63845551e-002
      2.38610543e-002 2.45831590e-002 4.19218801e-002 1.64266711e-003
      -1.17234081e-001 -8.40089247e-002 3.23201865e-002 4.27978188e-002
      4.47866023e-002 1.95920225e-002 3.03735840e-003 2.35390998e-002
      3.67909037e-002 -2.01310720e-002 6.47232309e-003 -3.57134677e-002
      1.22396620e-002 2.90275197e-002 3.66658382e-002 2.18023676e-002
      8.07313528e-003 -2.97783352e-002 -1.08349994e-001 -3.00082024e-002
      6.84741214e-002 8.60893950e-002 5.84151670e-002 3.17562856e-002
      1.55911651e-002 2.44414676e-002 2.16526482e-002 -3.18045616e-002
      -2.15617381e-002 -2.01660134e-002 2.49374900e-002 3.02346628e-002
      -5.44966795e-002 -9.97432973e-003 -1.38711499e-003 4.19559032e-002
      2.09802501e-002 -3.20052244e-002 -3.83005515e-002 -7.45877717e-003
      -3.39700729e-002 -3.60254422e-002 -5.00542857e-003 2.39363406e-003
      3.54615711e-002 3.05001847e-002 -2.97438633e-002 1.05673913e-003
      -2.01477371e-002 -2.66867206e-002 -3.76745239e-002 2.19964795e-002
      1.99944489e-002 3.77346911e-002 5.40578477e-002 6.52098283e-003
      -1.12581085e-002 -2.79151835e-003 -1.89011097e-002
      -3.60304341e-002 3.91313573e-003 -1.18945055e-002 1.45493178e-002
      3.49145867e-002 -1.85149070e-002 -4.19791415e-003 -1.54673471e-003
      -8.45398661e-003 -2.29442231e-002 -1.69556905e-002
      -1.63759664e-002 2.09906953e-003 7.66255660e-003 -6.53912053e-002
      -2.69381367e-002 -2.05626562e-002 -2.28978842e-002
      -1.85067374e-002 -2.71534715e-002 -5.58881368e-003
      -3.26397084e-002 -8.70854501e-003 -3.81773561e-002
      -5.91082722e-002 -4.58528623e-002 -5.19462079e-002
      -1.69162657e-002 -2.11928692e-003 -6.52560033e-004 4.86336946e-002
      5.89377768e-002 -1.34059936e-002 2.04372946e-002 1.48012480e-002
      2.37480761e-003 1.54861454e-002 -2.44645327e-002 2.89489864e-003
      5.72088733e-002 6.47088885e-002 3.35550215e-003 -6.85089380e-002
      -9.38995928e-003 1.78801306e-002 3.91618162e-002 3.80081944e-002
      1.88719369e-002 -7.78816314e-003 2.04057622e-004 8.81095883e-003
      -5.55191226e-002 -4.37150113e-002 1.28358118e-002 1.09149143e-002
      4.25517820e-002 -8.97181872e-003 -4.34493050e-002 -1.19012460e-001
      -2.46529803e-002 -5.77545315e-002 -9.05538797e-002
      -2.71318387e-002 4.86884117e-002 1.96383968e-002 2.60164123e-002
      3.76693606e-002 8.30890089e-002 5.92827015e-002 -2.15177927e-002
      -3.04077356e-003 7.01128468e-002 3.90239395e-002 5.34832068e-002
      3.32457349e-002 1.07904768e-003 -4.93347384e-002 -1.60459708e-002
      -5.55472523e-002 -5.45053817e-002 4.02453206e-002 4.79085445e-002
      1.34367524e-002 -1.21722044e-002 -4.99483012e-002 -6.23256750e-002
      1.27590597e-002 1.21925054e-002 -2.95450538e-002 3.97928990e-002
      3.15446518e-002 -1.32998433e-002 -3.04014646e-002 -1.22676589e-001
      -7.14271218e-002 -6.27679750e-002 6.45754440e-003 1.07025867e-003
      1.49023691e-002 7.75808766e-002 3.75580899e-002 -4.12903260e-004
      -1.26935681e-002 4.81851539e-003 3.75393033e-002 4.31320518e-002
      3.64624932e-002 6.93342537e-002 1.50391869e-002 -2.49180663e-002
      -3.20751444e-002 -5.36209866e-002 -6.07318059e-003 3.05994228e-002
      3.14061679e-002 4.29385081e-002 -4.07869369e-003 6.21025590e-003
      -7.70745007e-003 -1.57738812e-002 -1.33213341e-001
      -9.15695876e-002 2.48801727e-002 6.86586276e-002 4.90019917e-002
      -4.60572017e-004 -1.71773229e-002 -1.18687497e-002
      -4.58363891e-002 -1.16715334e-001 -1.03665136e-001 5.86354323e-002
      6.61339238e-002 6.11046962e-002 6.56130305e-003 -3.68044861e-002
      -2.91682035e-002 -3.98413539e-002 -8.36657137e-002 3.66076990e-003
      3.33083794e-002 7.03620166e-002 6.07355013e-002 2.83793692e-004
      -3.94605622e-002 -2.65461691e-002 -3.19680721e-002
      -3.58365998e-002 -1.34869358e-002 9.86891687e-002 9.16362628e-002
      4.71166819e-002 2.10449342e-002 -4.15277332e-002 -4.12978865e-002
      -6.20932467e-002 -1.61952481e-001 -1.44711986e-001 6.72769127e-003
      8.61892253e-002 3.22865807e-002 -2.90930942e-002 4.88385968e-002
      1.33354459e-002 6.23818953e-003 -6.66152313e-002 -8.31114352e-002
      8.67664218e-002 1.59463257e-001 1.24213785e-001 7.47220516e-002
      -6.24723695e-002 -6.93655461e-002 -5.11830747e-002
      -1.04348652e-001 -6.92440867e-002 3.88014801e-002 9.67763960e-002
      2.76941117e-002 3.13674519e-003 4.38969471e-002 2.32037567e-002
      2.31480878e-002 -4.07579280e-002 -6.16568094e-003 1.18915871e-001
      1.16349086e-001 6.99720010e-002 5.47516122e-002 3.45349871e-002
      1.56759061e-002 -1.96718927e-002 -7.14559779e-002 -9.54114050e-002
      -4.81236493e-003 8.42583701e-002 7.79417008e-002 4.52743396e-002
      4.03850898e-002 1.79661401e-002 1.02669606e-002 1.41936336e-002
      -4.80945595e-003 7.14744348e-003 -1.08444542e-002 2.72881258e-002
      2.61173807e-002 2.20561568e-002 1.24881761e-002 -3.33813205e-002
      -7.02215210e-002 -2.89625190e-002 1.82578508e-002 4.05612700e-002
      3.54457460e-002 1.64573435e-002 1.72840413e-002 -5.21630375e-003
      -2.85766833e-002 2.80347746e-003 7.44763110e-003 4.93822508e-002
      -6.21285057e-003 2.13163849e-002 3.53181697e-002 -2.61374228e-002
      2.00389139e-002 2.36484744e-002 2.62520667e-002 4.06319052e-002
      -7.70060439e-003 -2.73573939e-002 8.43069609e-003 -1.97621938e-002
      -4.43459600e-002 -6.91413600e-003 -8.49278830e-003
      -2.03366373e-002 1.92650240e-002 -3.37343626e-002 -2.75831949e-002
      -1.79702956e-002 -3.08196340e-002 3.66770551e-002 4.78833951e-002
      4.75207530e-002 3.77453826e-002 2.02062260e-002 -2.63655391e-002
      -7.66030103e-002 8.48200172e-003 4.67952602e-002 6.95151240e-002
      7.73094073e-002 3.73515040e-002 3.04415375e-002 -9.91443265e-003
      -4.86539416e-002 -4.62629348e-002 9.57993232e-003 4.99983765e-002
      -4.80865464e-002 -8.12854432e-003 -1.79678295e-002 2.97014043e-003
      6.41992129e-003 -4.44274768e-002 -3.98319438e-002 -7.69643635e-002
      -6.39488325e-002 -2.97257751e-002 -1.79460645e-002
      -1.93634871e-002 5.46424463e-002 1.31019717e-002 -3.20526436e-002
      -7.20945969e-002 -6.64360076e-002 -5.19819632e-002 4.60816808e-002
      4.27268818e-002 1.03212912e-002 1.97225865e-002 -1.52985975e-002
      -3.61961909e-002 -2.70931832e-002 -3.80462036e-002 1.72439609e-002
      6.05331250e-002 5.60088791e-002 3.90080102e-002 8.24223161e-002
      1.77713279e-002 -4.98880516e-004 -1.56583975e-003 -6.39098287e-002
      1.57441255e-002 -1.05525146e-003 -2.22885758e-002 -1.57443807e-002
      6.78024674e-003 1.00605600e-002 -8.54212046e-003 -4.54495028e-002
      -8.34860355e-002 1.11347530e-002 -4.71206987e-003 -1.31170535e-002
      -7.95066264e-003 -5.64369224e-002 -9.77658182e-002
      -8.19716603e-002 -9.01621878e-002 -1.30108654e-001 6.39468431e-003
      8.04402232e-002 2.24911701e-002 3.22566666e-002 5.69293573e-002
      1.65815614e-002 1.14543447e-002 1.61015615e-002 -5.07787615e-002
      7.13651478e-002 6.91886321e-002 2.04398260e-002 -1.11687621e-002
      -1.62073970e-002 -6.19578287e-002 -4.94473008e-003 8.16348591e-004
      -5.64351194e-002 4.14031334e-002 2.47101467e-002 1.09672947e-002
      -2.88120145e-003 -2.84175389e-003 3.58470553e-003 -1.91385876e-002
      -7.02391267e-002 -8.45804363e-002 1.49431033e-002 -4.51097712e-002
      -4.38113958e-002 -4.55357991e-002 -4.97306250e-002
      -2.79553421e-002 -2.39034686e-002 -8.01225528e-002
      -9.88694504e-002 -5.60314618e-002 7.39668980e-002 4.05267961e-002
      1.40877755e-003 3.87243219e-002 3.11844833e-002 4.60045189e-002
      -9.71646793e-003 1.10499881e-004 4.27682139e-002 -4.03960049e-003
      2.28003282e-002 1.22135486e-002 3.38330567e-002 1.89865716e-002
      1.43872853e-002 -4.47483286e-002 -2.92139426e-002 -1.89004913e-002
      -8.85778964e-002 -7.52121061e-002 -6.84956908e-002
      -8.37236196e-002 -4.90998570e-003 1.19174989e-002 -1.71571076e-002
      -5.24120666e-002 -4.27238420e-002 -9.46233645e-002
      -7.96569809e-002 -2.89118774e-002 -2.75116768e-002
      -1.12651130e-002 -1.70025304e-002 -1.80440340e-002
      -5.35461083e-002 -3.41103300e-002 -5.12329563e-002
      -3.17939818e-002 -3.76920332e-003 1.09183434e-002 9.53158662e-002
      6.17935956e-002 2.55976990e-002 -1.35215130e-002 -1.16349123e-002
      -3.19702476e-002 -3.99152264e-002 7.76637867e-002 9.72762406e-002
      9.26026478e-002 9.28201154e-002 1.23951193e-002 1.36345439e-002
      8.77416041e-003 -1.05710484e-001 -1.09713353e-001 -4.73910347e-002
      -7.85399824e-002 -3.00425309e-004 -7.00121699e-003 1.50548676e-002
      -2.44606454e-002 -3.51504944e-002 -8.44704919e-003
      -1.82746258e-002 -3.31809856e-002 -6.35442287e-002 2.29669530e-002
      8.30636099e-002 2.06385981e-002 1.58892069e-002 1.03707844e-003
      -8.08720365e-002 -7.19707757e-002 4.17484157e-002 4.19859439e-002
      4.69778925e-002 -3.55851371e-003 -9.11444947e-002 -2.41977405e-002
      -3.97418216e-002 -1.89093333e-002 -1.89459231e-002
      -1.08093321e-002 3.40210795e-002 5.98644875e-002 5.10298908e-002
      -4.30283174e-002 3.31978872e-002 1.75637286e-002 -1.35271410e-002
      -4.63079847e-002 -8.76576975e-002 -6.65484667e-002 1.68364979e-002
      2.24220566e-002 -1.03273476e-002 -1.10678922e-003 1.62531603e-002
      -1.18791196e-003 -2.00445578e-002 -5.04360646e-002
      -2.03947015e-002 3.96810807e-002 1.58177465e-002 -4.67135757e-002
      1.62477549e-002 2.54547670e-002 -1.80753749e-002 -4.43224721e-002
      -6.85782358e-002 1.77974831e-002 2.48403028e-002 3.60230058e-002
      -4.45314199e-002 1.33994510e-002 3.22492234e-002 2.40294505e-002
      1.17134694e-002 1.44328959e-002 6.36465847e-002 8.86238739e-002
      2.52003949e-002 -6.56201914e-002 1.85059402e-002 5.29455692e-002</_>
    <_>
      3.13181989e-003 8.87280609e-003 -3.92400511e-002 -3.78477341e-003
      3.34269251e-004 -2.44756360e-002 -1.43666985e-002 -1.72428824e-002
      1.01086926e-002 3.43158692e-002 8.13592412e-003 -2.27553342e-002
      2.45988276e-002 -2.68232240e-003 2.07636915e-002 -1.36881238e-002
      -4.25513461e-002 1.03537347e-002 1.25263650e-002 -6.27239095e-003
      -1.46495244e-002 -1.28227344e-003 3.14022191e-002 2.17312239e-002
      -8.24716873e-003 -2.12855246e-002 -1.16082365e-002 2.30930876e-002
      -2.99363490e-002 -5.42587265e-002 4.63252626e-002 2.55811028e-002
      4.56424393e-002 3.30789504e-003 -2.92839073e-002 -7.43671088e-003
      3.36890146e-002 -2.00225078e-002 -2.96948049e-002 1.09630814e-002
      1.27933426e-002 7.37043098e-002 1.21466555e-002 -1.59959607e-002
      3.38845737e-002 1.31398933e-002 -4.24193963e-002 -3.17083932e-002
      -1.71955954e-002 1.20667135e-002 7.57732391e-002 4.74365838e-002
      8.78121518e-003 2.56754588e-002 -1.22826910e-002 -3.91774811e-002
      -5.71415387e-002 1.67864356e-002 7.36387493e-003 4.96304892e-002
      2.50193998e-002 -3.30207148e-003 1.40602728e-002 -7.76288882e-002
      -8.27414468e-002 -7.05916211e-002 -3.47193293e-002
      -7.58025004e-003 3.96292694e-002 -1.29899487e-003 -1.16442591e-002
      -3.83703746e-002 3.70449424e-002 -8.09749216e-003 -1.68144703e-002
      2.99324077e-002 5.46777956e-002 4.39782254e-002 3.39927822e-002
      2.11248808e-002 4.82870936e-002 2.29781643e-002 -1.25020249e-002
      -3.46252099e-002 1.82856396e-002 6.15713187e-002 3.98172550e-002
      1.45243937e-002 2.51204763e-002 2.70072073e-002 -5.77489659e-002
      -7.79388696e-002 -7.88461417e-002 3.66408797e-003 -9.44847055e-003
      -6.60345424e-003 -4.85148281e-002 -4.55275588e-002
      -3.70366983e-002 -4.45214771e-002 -5.85833229e-002
      -7.94200003e-002 -1.44226244e-002 -2.49244198e-002
      -2.06061713e-002 -5.20946942e-002 -3.22794802e-002
      -4.09229770e-002 -1.24440156e-003 -4.38316613e-002
      -3.47092189e-002 1.24284802e-002 8.71511027e-002 4.99642231e-002
      2.90376246e-002 2.07268111e-002 2.33080350e-002 -4.06999886e-002
      -4.38143574e-002 -3.92551050e-002 4.64216955e-002 1.12016276e-001
      7.27402121e-002 2.63774693e-002 -1.04773855e-002 -8.23801663e-003
      -1.57959703e-002 -7.64725432e-002 -3.27717327e-002
      -8.88142269e-003 1.90550704e-002 -1.54351685e-002 -2.53596120e-002
      -2.03260034e-002 -2.17389762e-002 -4.83145900e-002
      -6.41518831e-002 -8.32999777e-003 5.14492067e-003 1.56750139e-002
      -1.59675572e-002 -3.89776118e-002 -5.62814958e-002
      -2.03741658e-002 -3.79369669e-002 -4.12923209e-002
      -4.04827371e-002 4.35836837e-002 1.16835244e-001 9.40426737e-002
      2.47425251e-002 -2.78725047e-002 -4.23597172e-002 -6.26286259e-003
      -1.37926787e-002 -1.22743659e-002 9.13847610e-003 8.73890445e-002
      1.06535725e-001 5.41901290e-002 1.28183188e-003 -1.25333667e-002
      -7.88224414e-002 -8.55624825e-002 -3.87059040e-002 2.06573363e-002
      4.70240451e-002 6.97776396e-003 -4.12654355e-002 -7.32288659e-002
      -8.19847807e-002 -4.98294123e-002 -6.99449703e-002
      -1.75341684e-002 -1.37614524e-002 6.10939786e-002 4.83873822e-002
      2.29606722e-002 -1.97607502e-002 -5.58114760e-002 -2.00418159e-002
      -4.55476046e-002 -1.62017215e-002 -2.18339376e-002 5.73567599e-002
      6.58634603e-002 3.30788009e-002 -1.69903226e-002 -2.62263045e-002
      6.45326357e-003 2.97293765e-004 3.89807969e-002 5.31953387e-002
      5.31538576e-002 6.09848946e-002 4.87883240e-002 -6.86342549e-003
      -1.72170214e-002 -6.54827207e-002 -5.26974425e-002 1.90283440e-003
      -2.91752461e-002 2.94711739e-002 3.86884809e-002 3.53945680e-002
      -2.10427828e-002 -7.42227212e-002 -3.70476060e-002
      -1.12725459e-002 2.91702971e-002 1.62731260e-002 1.02780592e-002
      3.34341899e-002 1.64468251e-002 -4.19571027e-002 -5.60398139e-002
      -2.55092308e-002 1.58191416e-002 3.99782211e-002 6.76258877e-002
      9.29254293e-003 5.48142903e-002 -7.11762346e-004 -4.95442227e-002
      -4.70800363e-002 2.93354616e-002 6.65719137e-002 6.39456958e-002
      6.37806356e-002 7.46980384e-002 5.46571724e-002 -2.55067851e-002
      -5.66727407e-002 6.08773204e-003 -1.02585144e-002 6.99296128e-003
      2.22595986e-002 3.01775429e-002 -5.52907884e-002 -1.97274070e-002
      -3.77041735e-002 -6.40873462e-002 -2.72723939e-002 6.02852926e-002
      7.69441724e-002 7.42152035e-002 4.03046906e-002 1.87763292e-003
      3.31258215e-002 -6.68400750e-002 -7.83255249e-002 1.07779717e-002
      2.92317942e-002 1.31527521e-002 -1.16668525e-003 -1.04177911e-002
      3.86206284e-002 3.40969069e-003 -1.84081774e-002 -2.44940035e-002
      9.55715403e-003 4.84409928e-002 -1.09464657e-002 -5.12812398e-002
      1.71871912e-002 3.03380042e-002 3.13966982e-002 7.11099757e-003
      7.96164852e-003 1.37143675e-002 2.43841335e-002 1.31085813e-002
      -6.49185758e-003 -4.67999978e-003 7.03476137e-003 -1.68345552e-002
      -2.41252370e-002 -4.36703861e-002 1.42237088e-002 4.91426373e-003
      -5.95564917e-002 -4.49668169e-002 -5.92808202e-002 9.78998467e-003
      2.19024085e-002 3.85554507e-003 -1.68646518e-002 2.26267036e-002
      -3.12560610e-003 -3.46730202e-002 -4.28236723e-002 2.07904894e-002
      4.05995622e-002 4.59960438e-002 2.65230592e-002 4.16490845e-002
      3.71548012e-002 -4.34186384e-002 -9.36146453e-002 -6.82628602e-002
      8.80233198e-003 6.71283156e-002 4.24741469e-002 6.31351164e-003
      1.95004547e-003 1.08780023e-002 -2.74470672e-002 -6.63930774e-002
      -7.87490457e-002 -4.30769138e-002 1.04774116e-002 5.32345735e-002
      2.10473202e-002 2.35258825e-002 2.95189023e-002 -4.81719300e-002
      -1.30683675e-001 -8.83491263e-002 -2.60456949e-002 2.08974234e-003
      1.71517655e-002 -2.18329579e-002 -1.10432934e-002 6.39484904e-004
      -2.06915811e-002 -6.74432367e-002 -1.23220095e-002 6.68376312e-002
      5.22053279e-002 2.61542518e-002 -2.48197839e-002 -2.02779658e-002
      3.58194597e-002 -2.25429103e-004 -1.85483359e-002 1.29921017e-002
      2.71089152e-002 3.03965267e-002 2.41808407e-002 -3.70401377e-003
      7.13344850e-003 3.19159962e-002 -3.89624126e-002 -9.35069695e-002
      -3.02910116e-002 1.99646950e-002 1.57373864e-002 2.75810957e-002
      -3.31906602e-002 -1.94806047e-002 2.79865619e-002 -3.22487503e-002
      -3.31679620e-002 8.91523808e-003 -1.77513454e-002 -2.23614853e-002
      1.11023495e-002 -1.71199404e-002 -2.04436835e-002 9.00740828e-003
      9.18745343e-003 -7.72936083e-003 3.01567768e-003 -2.64035221e-002
      4.71659284e-003 -1.09169213e-002 -2.16698041e-003 -1.44576533e-002
      2.65557561e-002 2.59086164e-003 -1.63060485e-003 2.51634251e-002
      1.10321073e-002 1.50242103e-002 -1.68860052e-002 -6.77472493e-003
      -2.70017721e-002 5.36186434e-003 -2.43184678e-002 -2.72087194e-002
      -8.71796161e-003 -1.39893722e-002 -2.04459056e-002
      -5.84903732e-002 -2.01027375e-003 -2.12233718e-002
      -5.46316756e-003 1.25544146e-002 -1.64977219e-002 8.59991182e-003
      1.40335513e-002 -2.63698567e-002 -2.56602261e-002 -5.81722707e-003
      -3.48173268e-002 5.26442798e-003 -1.88713819e-002 -2.45647859e-002
      4.50206734e-003 -1.50781823e-002 3.23877782e-002 -2.12629456e-002
      -2.27609910e-002 -2.69451048e-002 -2.56729908e-002
      -2.23329365e-002 -1.39292674e-002 1.44175803e-002 -1.17034363e-002
      2.11746264e-002 4.14802544e-002 6.87487330e-003 -1.66178625e-002
      9.60606441e-004 -5.56460442e-003 -4.90838522e-003 8.67213588e-003
      -3.20546736e-004 -6.94217719e-003 -1.69915147e-002
      -7.85237830e-003 -4.08382453e-002 -4.58242707e-002 1.38255721e-003
      -5.52674662e-003 1.16580231e-002 3.77971982e-003 -1.83752906e-002
      -2.30478048e-002 -4.77471054e-002 -6.63640499e-002 2.40884279e-003
      -2.65251379e-002 -1.36823859e-002 7.58507568e-003 -2.37777792e-002
      1.40362175e-003 1.67687964e-002 -1.14401337e-003 -4.20078076e-002
      -2.00530477e-002 2.29292419e-002 2.51307171e-002 2.59707086e-002
      2.63315346e-002 4.46084887e-002 3.18427011e-002 3.82208684e-003
      -7.37489527e-003 1.52594771e-003 -1.92623828e-002 -4.89132106e-003
      4.22250014e-003 -1.33084841e-002 -2.59152260e-002 -5.97639978e-002
      -5.69559336e-002 -6.52201846e-002 -2.05462854e-002 5.16268536e-002
      2.89549679e-002 4.04082648e-002 6.37759566e-002 2.98952479e-002
      -1.61081292e-002 -3.32642510e-003 -3.51997907e-003 6.79269759e-003
      1.12273693e-002 1.37828644e-002 1.41838868e-003 1.06720757e-002
      -4.20126058e-002 -3.09223793e-002 -4.06479277e-002
      -4.60571460e-002 -1.46726556e-002 6.20506406e-002 4.98598851e-002
      4.62292619e-002 3.03657986e-002 -1.86178472e-003 4.09040460e-003
      -3.69072631e-002 -4.50400710e-002 1.86586268e-002 2.60549281e-002
      3.44402972e-003 9.70171951e-003 2.93532368e-002 -4.94657308e-002
      -5.22102229e-002 -4.09429818e-002 -3.65678482e-002
      -9.55615658e-003 6.18251823e-002 3.56151611e-002 3.24222371e-002
      6.26423731e-002 1.95429381e-002 -2.79094428e-002 -2.98818536e-002
      -3.41852009e-002 3.52104306e-002 3.05690393e-002 1.15910079e-002
      2.64615063e-002 1.68193947e-003 -1.04011009e-002 3.20465751e-002
      1.78392639e-003 -3.98772769e-002 4.22032736e-003 1.47375790e-002
      -8.25662911e-003 -1.38786677e-002 -4.01607379e-002 1.36288884e-003
      7.50921369e-002 1.01908520e-002 -2.53738686e-002 5.95893851e-003
      1.91313904e-002 -1.06415176e-003 -3.20396200e-003 -1.92591548e-002
      -9.76502523e-003 5.86918853e-002 1.63998064e-002 -2.31039096e-002
      1.19102458e-002 4.12168838e-002 9.08789411e-003 9.85199399e-003
      -5.35782427e-002 1.23980781e-002 4.45773751e-002 4.95309755e-002
      1.29252987e-003 2.62815356e-002 4.63896878e-002 -1.79298203e-002
      -4.22689430e-002 -3.10154967e-002 -4.02937923e-003 8.37915242e-002
      4.23368663e-002 2.49907449e-002 5.85978739e-002 2.71296641e-003
      -6.38984442e-002 -4.47240360e-002 -4.02543731e-002
      -3.86869647e-002 6.05272315e-002 3.29887271e-002 2.94319317e-002
      6.06328584e-002 5.64425029e-002 1.99394040e-002 1.24179926e-002
      -2.35427395e-002 -2.47003995e-002 6.26961365e-002 6.08621612e-002
      2.44930517e-002 1.98805071e-002 3.42824087e-002 -9.76513978e-003
      -1.79966900e-003 -8.58874023e-002 -1.02755703e-001 3.26742753e-002
      5.58947697e-002 3.27865928e-002 2.85692401e-002 -1.51789123e-002
      -4.06356826e-002 -5.13133686e-003 -3.35949138e-002
      -2.55159102e-002 2.92026773e-002 1.72054153e-002 5.14645455e-003
      3.83074209e-002 2.68039643e-003 -6.87410682e-003 3.69240344e-002
      -1.51158066e-003 -2.35454366e-002 2.57949643e-002 2.27476750e-002
      1.39496960e-002 4.57690023e-002 2.64139436e-002 2.43956372e-002
      4.47825082e-002 -6.67621866e-002 -7.75710419e-002 7.99716450e-003
      1.35959564e-002 6.60939841e-003 1.48726571e-002 6.22966178e-002
      6.84500411e-002 6.50568828e-002 5.52409980e-003 -4.22049426e-002
      -1.89505599e-003 2.41360683e-002 3.05043329e-002 5.30884266e-002
      3.42252515e-002 -6.39416417e-003 4.21500057e-002 3.15500190e-003
      -4.11946662e-002 -2.94180717e-002 3.35802175e-002 1.08873500e-002
      2.49916147e-002 2.20741257e-002 3.27093564e-002 3.40304226e-002
      1.62959155e-002 -3.84143330e-002 -2.40451898e-002 2.17394214e-002
      -9.06373374e-003 -1.41145065e-002 3.64141874e-002 4.46721762e-002
      6.56638220e-002 -9.59052052e-003 -4.44429778e-002 -3.78087237e-002
      2.73165125e-002 2.21894532e-002 4.62126657e-002 -2.68963184e-002
      2.06195433e-002 4.97031175e-002 -3.18802260e-002 -1.89733487e-002
      -8.45830515e-002 1.17050232e-002 6.06173417e-003 -2.57898718e-002
      2.61208378e-002 5.29285818e-002 4.76302244e-002 2.90182675e-003
      -3.51955220e-002 -4.28849272e-002 1.96736157e-002 -8.34330916e-003
      6.21621148e-004 4.81892042e-002 5.73730282e-002 6.27359822e-002
      3.54026519e-002 -3.21091004e-002 -1.87498275e-002 6.97403401e-003
      -1.82809215e-002 5.59061430e-002 1.09204585e-002 3.01297083e-002
      6.71065226e-002 -3.66578661e-002 -4.94636446e-002 -7.45126382e-002
      1.43186254e-002 -4.72502224e-003 -1.12407124e-002 4.65473644e-002
      1.87848024e-002 8.00707713e-002 1.83180999e-002 -5.92126250e-002
      -3.89145911e-002 3.20393778e-002 -2.56534349e-002 2.48999931e-002
      2.33347341e-002 1.43185593e-002 2.98523288e-002 1.07668303e-002
      -7.79099613e-002 -7.90504888e-002 -2.38191001e-002
      -4.16629687e-002 2.17892714e-002 4.75197919e-002 2.79809851e-002
      6.24091737e-002 9.24854949e-002 -2.95425728e-002 -3.81691731e-003
      2.03913432e-002 1.01102469e-002 3.94526944e-002 2.99722422e-002
      1.03740152e-002 6.31825924e-002 -7.58674042e-003 -8.51982981e-002
      -6.51071295e-002 2.28354009e-003 -1.38486307e-002 2.97999643e-002
      4.21850681e-002 3.14780846e-002 7.91786388e-002 5.89171462e-002
      -4.83530685e-002 2.12517399e-002 4.49338406e-002 3.76651138e-002
      4.67208177e-002 2.27075852e-002 2.12839171e-002 4.96335849e-002
      2.29731593e-002 -4.66834567e-002 -4.92803343e-002 -1.62457414e-002
      -2.50308141e-002 -1.23136528e-002 2.41100956e-002 4.34882529e-002
      5.43572195e-002 7.17402026e-002 9.25151072e-003 -3.18803713e-002
      8.45684903e-004 -6.31686416e-004 1.56389847e-002 8.20569973e-003
      1.04439193e-002 3.16506624e-002 1.34954564e-002 -5.15882261e-002
      -3.75060327e-002 2.15369859e-003 8.58374685e-003 7.98839517e-003
      2.12464407e-002 2.41037309e-002 3.53313200e-002 2.48629022e-002
      9.53374337e-003 2.03152541e-002 3.14034633e-002 9.71230865e-003
      1.96182057e-002 1.10773230e-002 -2.15084385e-002 2.16236664e-003
      -1.21762813e-003 -1.08227562e-002 3.00938245e-002 1.98940504e-002
      -1.60344206e-002 1.04775587e-002 2.96188891e-002 2.37205648e-003
      2.63821967e-002 -3.26667875e-002 -5.63872932e-003 2.41257556e-004
      2.44041421e-002 -4.10048338e-003 3.25895362e-002 2.69713420e-002
      5.49535919e-003 3.50190438e-002 2.79264972e-002 1.29305888e-002
      6.85772533e-003 1.76196322e-002 -1.88283471e-003 8.17382243e-003
      3.24112549e-002 1.69587210e-002 2.76038703e-002 -2.72913203e-002
      -1.83103774e-002 -2.25704890e-002 1.38471304e-002 -1.13112014e-003
      1.63399372e-002 6.73105568e-002 5.29096052e-002 5.08752652e-002
      2.09101313e-003 -7.16335848e-002 2.30200477e-002 4.91166040e-002
      2.85968091e-002 3.84119526e-002 6.03082739e-002 6.24216609e-002
      4.44390699e-002 -8.66511986e-002 -1.46334708e-001 6.90698531e-003
      5.41840009e-002 3.44688334e-002 2.84556858e-002 5.27765006e-002
      4.62714285e-002 4.90449332e-002 -2.53779604e-003 -9.97304320e-002
      -5.96855127e-004 4.96998429e-002 4.77368906e-002 3.74198146e-002
      6.13119528e-002 6.39797077e-002 1.05634347e-001 -1.77478231e-002
      -1.52823582e-001 -3.39425281e-002 1.12297252e-001 5.18907607e-002
      4.10241410e-002 5.29196300e-002 5.69237731e-002 5.97753413e-002
      -7.46895969e-002 -1.40918449e-001 -1.01704262e-002 3.43346186e-002
      2.64317617e-002 3.80113982e-002 6.94495589e-002 8.60234499e-002
      7.55383149e-002 -1.04160784e-002 -9.59456041e-002 -5.39980410e-003
      2.73506436e-002 4.35863286e-002 6.11046106e-002 3.51452120e-002
      5.06534688e-002 8.82032961e-002 -1.12634525e-002 -1.19983181e-001
      -1.94656458e-002 7.31963441e-002 2.68906541e-002 4.86444496e-002
      2.90077589e-002 4.76442277e-002 4.68991026e-002 -1.36486767e-002
      -9.75241140e-002 3.13742249e-003 7.73700550e-002 5.25590479e-002
      5.80945127e-002 4.66283895e-002 5.24842329e-002 5.67104295e-002
      4.90748743e-003 -5.18838651e-002 -3.75136994e-002 1.69711262e-002
      2.06129532e-002 4.19968665e-002 7.14812661e-003 1.70104671e-002
      4.74129170e-002 -1.08157396e-002 -4.51267473e-002 -9.42034051e-002
      -5.23619587e-003 -1.76583428e-003 -1.22326957e-002 1.58439986e-002
      3.41616273e-002 5.97568341e-002 4.85949265e-003 -4.96714450e-002
      -4.13290225e-002 3.84158939e-002 1.61052737e-002 2.88257748e-002
      -2.15636054e-003 4.67145396e-003 4.00749072e-002 -4.11836877e-002
      -4.65504006e-002 -6.32031783e-002 1.30654667e-002 -1.02062356e-002
      1.50687788e-002 3.50973159e-002 5.25157899e-002 8.20878744e-002
      -1.98173765e-002 -8.35891366e-002 -5.66560291e-002 1.74094159e-002
      -3.35396267e-003 7.11287418e-003 6.79992959e-002 6.13810159e-002
      1.00045457e-001 5.20003624e-002 -6.13809228e-002 -7.54533894e-003
      6.13620877e-002 2.66813370e-003 3.58958021e-002 2.46710032e-002
      2.62192432e-002 3.52380127e-002 -7.21116960e-002 -6.18331395e-002
      -5.21043092e-002 3.53061780e-002 6.50260132e-003 2.36317683e-002
      4.98248078e-002 5.25242426e-002 6.21981733e-002 2.94809565e-002
      -7.30913207e-002 2.19080746e-002 5.69953285e-002 4.50669881e-003
      1.26283560e-002 4.24277075e-002 2.99403295e-002 6.01825081e-002
      -1.46448426e-002 -1.03315741e-001 -2.91643739e-002 2.95277648e-002
      1.12605421e-002 2.60044280e-002 4.29768749e-002 3.68873589e-002
      6.28924519e-002 4.63368781e-002 -8.85828063e-002 3.31571884e-002
      5.36947139e-002 5.29097170e-002 4.46533822e-002 1.84804704e-002
      2.29288451e-002 3.05871721e-002 -4.20361310e-002 -9.87644643e-002
      8.08486249e-003 1.71963088e-002 7.55072199e-003 7.04803877e-003
      5.70675954e-002 6.34197071e-002 6.20624013e-002 1.38399946e-002
      -7.17795268e-002 4.81316894e-002 1.54702291e-002 3.56142931e-002
      5.06907515e-002 1.70852207e-002 6.19980926e-003 3.98863154e-003
      -4.48977202e-003 -7.01886564e-002 -3.16754915e-002 1.71999540e-002
      2.85704769e-002 2.65260190e-002 4.35302518e-002 1.62510127e-002
      1.46979000e-002 3.76659282e-003 -2.09525581e-002 2.05590259e-002
      3.33529748e-002 1.33968256e-002 4.67919931e-002 4.65006866e-002
      2.12349594e-002 1.06113125e-002 -3.68523225e-002 -4.24152464e-002
      1.19114136e-002 6.36016019e-003 1.38764950e-002 2.89754178e-002
      4.80348021e-002 3.05270944e-002 4.74514179e-002 1.31709594e-002
      -4.27744277e-002 5.08811735e-002 3.08693387e-002 1.25006307e-002
      2.72036530e-002 1.82062294e-002 -2.64087617e-002 1.55406510e-002
      2.18917299e-002 1.70306512e-003 1.65892895e-002 -3.73450737e-003
      4.79218643e-003 1.08615831e-002 1.35901282e-002 1.63508230e-003
      -1.06717339e-002 -3.03282142e-002 -2.08114646e-002
      -3.86455953e-002 1.29826739e-002 -5.52262296e-004 4.13948158e-003
      2.30735745e-002 -3.82987447e-002 2.90956665e-002 4.25036065e-002
      7.95473717e-003 1.30930915e-002 -8.36231839e-003 4.39789295e-002
      4.00127918e-002 1.34480465e-002 -2.21216325e-002 1.35338912e-002
      1.83052849e-003 -3.47920656e-002 -6.55924529e-002 -5.62344259e-003
      1.34777771e-002 2.77014803e-002 3.67371589e-002 4.07757647e-002
      3.90652642e-002 1.43689988e-003 -9.97049958e-002 -2.58097164e-002
      5.40518127e-002 3.81159298e-002 4.32555601e-002 2.43640691e-002
      2.86588725e-002 5.85869178e-002 1.31954858e-002 -1.03496879e-001
      -6.19315691e-002 4.85495478e-002 4.16100621e-002 2.73482725e-002
      3.89330946e-002 1.33833159e-002 2.99980454e-002 1.12965042e-002
      -5.43457195e-002 -6.70860484e-002 1.99033599e-002 2.50276811e-002
      5.00997417e-002 -4.89954930e-003 1.60527732e-002 3.03405318e-002
      1.28738210e-002 -8.05836990e-002 -3.15600075e-002 -1.83157306e-002
      -3.78915779e-002 -2.21763216e-002 1.46792391e-002 1.56912543e-002
      4.06589992e-002 2.30638757e-002 -9.05044824e-002 -4.91712615e-003
      3.79695185e-002 1.95439328e-002 2.07392648e-002 4.68700100e-003
      5.21227950e-004 1.68057084e-002 6.37917919e-003 -6.64258078e-002
      2.48011132e-003 3.45430896e-002 1.30805019e-002 1.08350506e-002
      1.97485182e-002 1.76094994e-002 1.84850469e-002 8.96725804e-003
      -4.65615131e-002 1.17307622e-002 -1.47067085e-002 -5.30203767e-002
      -2.42258962e-002 1.95690878e-002 9.15496796e-003 1.63629034e-003
      -2.42632776e-002 -2.52943207e-002 3.45551334e-002 -1.75805651e-002
      -3.56272459e-002 -5.99770993e-003 -2.43410352e-003 3.71119450e-003
      2.93231662e-002 1.36060193e-002 -1.64589453e-002 -8.36217590e-003
      1.32900951e-002 -2.76879710e-003 1.42442267e-002 -1.87217910e-002
      -6.90134056e-003 2.56858319e-002 -2.73886304e-002 -6.55549252e-003
      -2.18951907e-002 1.25892656e-002 -7.41778594e-003 1.32405404e-002
      9.47600976e-003 -5.95344231e-003 -1.96142253e-002 -2.15317123e-002
      9.27332230e-003 2.78749038e-002 -7.33791804e-003 -2.23574899e-002
      -3.51906614e-003 1.17089413e-002 -3.35398391e-002 -1.40906302e-002
      -2.31953841e-002 -3.25052487e-003 -4.23476361e-002
      -1.33040054e-002 -3.34304944e-002 -1.52064431e-002 8.90764780e-003
      -3.06800986e-003 -7.13288737e-003 -4.76834886e-002
      -5.27012162e-002 -3.69392522e-002 3.77682634e-002 1.34386094e-002
      2.39676051e-002 4.37841304e-002 2.75542610e-003 2.42573433e-002
      7.49284169e-003 -1.66806616e-002 1.29665574e-002 6.86158240e-002
      2.18475033e-002 4.47894782e-002 5.54082263e-003 -1.09697944e-002
      1.21360468e-002 -4.22132760e-002 -5.73677085e-002 -3.38713415e-002
      -8.34420230e-003 -6.83994126e-003 7.28595862e-003 2.14335490e-002
      1.93956792e-002 1.20007535e-002 -2.78787632e-002 -2.35640723e-002
      1.91367734e-002 3.86690758e-002 1.12039344e-002 3.77877057e-002
      1.67658664e-002 -3.19983432e-004 -2.34975033e-002 -6.60913363e-002
      -6.58715442e-002 1.51248146e-002 2.44785268e-002 7.14474265e-003
      9.52912681e-003 4.91203368e-002 3.87052074e-002 2.88427249e-002
      -2.66265236e-002 -5.08453362e-002 7.45944083e-002 2.88701318e-002
      2.64223088e-002 3.58694494e-002 2.20541470e-002 -1.62644254e-003
      -2.79883295e-002 -8.62795040e-002 -5.75952493e-002 4.06162493e-004
      -6.23670034e-003 -5.34150004e-003 1.70081314e-002 5.85761033e-002
      2.67388001e-002 1.53274937e-002 -8.06356743e-002 -1.03718005e-002
      1.00655183e-001 1.80567559e-002 1.50318164e-002 4.87875678e-002
      4.56751622e-002 9.82573722e-003 8.43930244e-003 -6.73457310e-002
      -4.41753156e-002 6.39147013e-002 2.09177528e-002 1.72593556e-002
      4.02268060e-002 3.47464196e-002 8.73290561e-003 3.96417119e-002
      1.13643415e-003 -5.30606434e-002 5.85037544e-002 2.32605785e-002
      3.03817037e-002 1.96596459e-002 7.08956048e-002 2.69359853e-002
      -2.61128880e-003 -8.63568410e-002 -4.78325747e-002 7.90107548e-002
      1.78009029e-002 1.40807498e-002 5.41958027e-002 6.65802062e-002
      1.73592456e-002 4.26489040e-002 -3.98919955e-002 -4.82301712e-002
      5.44843115e-002 9.06340685e-003 1.70430224e-002 5.25721721e-002
      1.66348033e-002 -4.98804413e-002 -7.29206810e-003 2.79991771e-003
      2.36729290e-002 -8.79395101e-003 -5.59867322e-002 3.46606374e-002
      4.42757308e-002 -1.60082970e-002 -5.51244803e-002 -3.13415267e-002
      -3.51477973e-002 -3.47428732e-002 -7.11852089e-002
      -8.55431557e-002 -5.31670451e-002 1.58724689e-003 9.47469845e-003
      -3.71991098e-002 -1.20529104e-002 1.09478226e-002 5.27939871e-002
      -8.41617677e-003 -4.55397964e-002 2.87139267e-002 6.20655306e-002
      5.60880732e-003 -4.83448952e-002 -2.52930913e-002 3.08267609e-003
      2.32041292e-002 -1.18336491e-002 -7.47039020e-002 -3.62438262e-002
      4.47981395e-002 8.58186837e-003 -9.95247159e-003 -7.66000524e-003
      1.76433083e-002 8.21717549e-004 -4.02326956e-002 -4.78502810e-002
      -6.18162155e-002 2.50331732e-003 -1.53076258e-002 -1.97602287e-002
      -6.05311571e-003 -1.71313994e-003 -2.56194398e-002
      -3.57601419e-002 -8.66564512e-002 -1.38083234e-001
      -6.11211471e-002 5.25622517e-002 2.68804561e-002 1.52714886e-002
      5.17519563e-002 6.87796175e-002 4.48560715e-002 -3.36703658e-002
      -3.19677256e-002 5.28112575e-002 -1.72180589e-003 -1.37331644e-002
      6.72589615e-003 1.74540151e-002 3.09634525e-002 1.23622390e-002
      -7.02313632e-002 -1.19067341e-001 -9.61981621e-003 3.24811973e-003
      -1.51562635e-002 1.04572845e-003 1.16007170e-002 1.93691123e-002
      4.42857109e-002 -3.96311060e-002 -1.19391307e-001 -2.97985151e-002
      -2.91706044e-002 -3.90997455e-002 -5.88366464e-002
      -3.16826627e-002 2.00836211e-002 1.23934622e-003 -5.22204228e-002
      -7.34148324e-002 -3.56914997e-002 1.24695962e-002 -3.18254717e-002
      -1.39414817e-002 9.39830020e-003 6.13344908e-002 2.18775459e-002
      -3.64144742e-002 -9.57105979e-002 8.73693544e-003 -4.04658616e-002
      -4.54248115e-002 -5.04366681e-002 3.88702680e-003 1.68746058e-002
      -1.23403482e-002 -4.57004420e-002 -5.46293333e-002
      -2.40450650e-002 -4.03860211e-002 -4.38988358e-002
      -4.52510230e-002 -3.25728916e-002 2.81371884e-002 2.75123846e-002
      1.38431350e-002 -3.17540541e-002 -1.85131244e-002 -1.14548383e-002
      -6.57858998e-002 -1.36087397e-002 -2.50830594e-002 9.14604776e-003
      -7.61794206e-003 -1.04074040e-002 -4.61640619e-002
      -7.84155168e-003 -3.16070616e-002 -3.04212254e-002
      -2.80813519e-002 1.81857720e-002 4.76648472e-002 2.65129935e-002
      5.54516492e-003 -1.63340457e-002 2.78357114e-003 -2.69598402e-002
      -4.35618423e-002 8.34858511e-003 2.03965623e-002 3.48793864e-002
      4.27405387e-002 1.90318245e-002 -1.41617572e-002 -2.18383614e-002
      -2.88715418e-002 -2.45396290e-002 2.46654861e-002 -3.59746143e-002
      -1.79480519e-002 1.79702919e-002 -1.75624862e-002 -5.79522401e-002
      -3.54451016e-002 -3.70937735e-002 -9.44833830e-003
      -2.49049682e-002 -2.12380774e-002 1.11407023e-002 3.02025452e-002
      1.59976259e-002 -5.10825776e-002 -3.53582017e-002 -3.49727683e-002
      -4.11625654e-002 -3.81817808e-003 1.20973205e-002 3.75156142e-002
      5.62307537e-002 -1.06640039e-002 -3.90454270e-002 -6.06310293e-002
      -2.64519677e-002 -1.64855048e-002 -2.36680568e-003 4.01306637e-002
      5.73365614e-002 6.28318042e-002 7.91054685e-003 -5.58351688e-002
      -5.37989810e-002 -3.43221128e-002 -3.04887276e-002
      -5.70231304e-002 -3.55240963e-002 -9.51516815e-003
      -6.22504996e-003 -3.14867757e-002 -3.00983973e-002
      -2.46915575e-002 2.19410881e-002 6.54781330e-003 -4.96223662e-003
      -5.74983284e-002 1.78970285e-002 7.95051605e-002 7.95185566e-003
      -3.34676518e-003 4.33108397e-002 -1.57339610e-002 -4.12986502e-002
      -3.52747701e-002 6.95660431e-003 2.62078755e-002 3.20707522e-002
      -1.29579334e-002 -2.90427357e-002 -2.74947304e-002 1.86054222e-002
      -1.04250824e-002 1.16758682e-002 -1.85757340e-003 6.26595318e-002
      1.00629427e-001 1.01842079e-002 1.54949939e-002 2.00417917e-002
      3.32039706e-002 -6.56885444e-004 -1.27057442e-002 -6.67375103e-002
      5.34787122e-003 6.47366792e-002 1.77530721e-002 9.49592097e-004
      5.03730662e-002 7.20198825e-002 1.27202272e-002 1.69560965e-002
      -1.97392590e-002 -4.36314121e-002 5.41064329e-002 1.83526948e-002
      1.36272255e-002 7.71907270e-002 -2.56916583e-002 -3.84362377e-002
      -9.66640655e-003 -6.88634589e-002 6.58723386e-003 9.46437120e-002
      8.01513158e-003 4.72730986e-004 1.17090717e-002 1.19895646e-002
      -3.59787345e-002 -3.81371123e-003 -3.65863815e-002
      -1.85995344e-002 5.41317873e-002 1.96849667e-002 -1.64997682e-003
      4.43402901e-002 8.54059216e-003 -3.24227512e-002 -2.57081687e-002
      -3.95875983e-003 4.56591472e-002 -2.27793772e-002 -6.04766198e-002
      2.21230742e-002 4.98958528e-002 3.52329947e-002 3.63819679e-004
      -2.52322457e-003 -5.05923992e-004 4.47964966e-002 1.34532014e-002
      -4.32124995e-002 -1.41281532e-002 3.92448083e-002 -2.45022383e-002
      -7.96504617e-002 -5.51086366e-002 -4.80394736e-002 2.22480809e-003
      -3.40260118e-002 -6.58312142e-002 -2.36490145e-002
      -1.69394389e-002 3.32575254e-002 -1.21272607e-002 -1.83870507e-004
      9.66098066e-003 -3.77979651e-002 -1.55613273e-002 -4.15390693e-002
      -2.70757247e-002 1.58819575e-002 2.48435382e-002 1.33102816e-002
      -1.61745364e-003 -2.26751305e-002 1.14956554e-002 5.08688216e-004
      -6.13030382e-002 -4.78466079e-002 3.78347114e-002 -2.74727270e-002
      -3.25110815e-002 -3.14791910e-002 -2.27453373e-002 1.26826484e-002
      -8.23376758e-004 -6.34722486e-002 -6.86556101e-002
      -2.15249159e-003 1.28090661e-002 -1.05484528e-002 1.04068099e-002
      3.87776672e-004 -7.54939951e-003 1.04363915e-002 -3.10410000e-002
      -4.01486009e-002 3.65928523e-002 -2.88386294e-003 -1.53567120e-002
      1.13784913e-002 1.11451885e-002 2.45455634e-002 2.05058083e-002
      -2.47210115e-002 -4.22187820e-002 2.77710776e-003 -3.65465097e-002
      -8.41816664e-002 -6.14385270e-002 -2.45092921e-002 1.56468134e-002
      -7.44234771e-003 -6.94854036e-002 -1.03411019e-001
      -1.86789669e-002 -5.53883053e-002 -8.81009847e-002
      -4.63320799e-002 -2.05035675e-002 -9.30541474e-003
      -1.69147085e-002 -9.01818871e-002 -7.02594742e-002
      -4.78874408e-002 4.80104331e-003 -4.20752391e-002 -4.11922298e-003
      1.35511009e-003 2.29977202e-002 3.11951507e-002 -1.27755171e-002
      -4.09740359e-002 6.69029960e-003 1.67340469e-002 -8.48042546e-005
      2.05006730e-002 2.85306592e-002 3.79327200e-002 4.83485982e-002
      -3.68654425e-003 -4.14533447e-003 1.85801256e-002 -6.35743290e-002
      -4.83366922e-002 -2.37624329e-002 8.45301151e-003 7.05869822e-003
      1.07995914e-002 -7.19607621e-002 -5.58986515e-002 -4.05875631e-002
      -7.06358999e-002 -6.20034263e-002 -1.33468974e-002 9.07229632e-003
      1.57885486e-004 1.03856241e-002 -4.42896672e-002 -6.03298880e-002
      -6.32794648e-002 -1.70259997e-002 4.55952017e-003 2.88935415e-002
      5.05133308e-002 4.27608751e-002 3.89368162e-002 1.46196764e-002
      3.15989070e-002 6.41353754e-003 -8.83383444e-004 -2.67327693e-003
      2.85287388e-002 7.94309825e-002 5.99055402e-002 6.63855076e-002
      1.43799102e-002 1.13482792e-002 -4.08276636e-003 -5.43390699e-002
      -6.85924888e-002 -1.54363373e-002 -7.64814555e-004 1.17255505e-002
      2.41137557e-002 -1.50647722e-002 -3.78476046e-002 -4.80419658e-002
      -3.06655392e-002 -5.42161725e-002 2.28959089e-003 2.41054036e-002
      -8.32052901e-003 -9.05872229e-003 -2.48220805e-002
      -4.30621877e-002 -2.04627346e-002 -5.97682688e-003
      -1.42216729e-002 1.98567677e-002 7.07491785e-002 4.36755791e-002
      5.91925085e-002 4.42736596e-002 1.86498668e-002 -1.60985012e-002
      2.12725997e-002 8.23077373e-003 6.27785027e-002 6.84885904e-002
      -1.66988410e-002 8.67338385e-003 3.32921110e-002 3.33051756e-002
      1.67850312e-002 5.09923184e-003 -4.29657660e-002 -1.92238819e-002
      -3.13786305e-002 -1.83960947e-003 -1.80474162e-004 3.54432547e-003
      -2.79201493e-002 -1.78643111e-002 4.75955307e-002 -1.88776609e-002
      1.21725434e-002 -1.55973984e-002 -3.01531726e-003 6.75589293e-002
      2.12498605e-002 -3.73204332e-003 2.27404758e-002 3.20082419e-002
      1.63000810e-003 1.59511063e-002 -6.67892350e-003 -1.76250134e-002
      -1.66370347e-002 -6.42716652e-003 -2.46785930e-003 1.84512325e-002
      4.77468409e-002 -2.51476606e-003 2.56570522e-002 -1.99194886e-002
      -2.54193004e-002 5.12140952e-002 1.70195699e-002 -5.46242995e-003
      7.00937584e-002 -1.30601018e-003 -6.03016093e-002 -1.45860277e-002
      -1.83937307e-002 4.31611612e-002 6.17549717e-002 -8.87235347e-003
      -2.27945130e-002 8.60199239e-003 1.61907542e-002 -8.16004872e-002
      -3.74217033e-002 -8.79571773e-003 4.12968360e-002 4.03957367e-002
      -1.31891742e-002 -1.85951665e-002 3.37163247e-002 3.69005315e-002
      -5.38000874e-002 -6.43016165e-003 8.45000334e-003 1.46103002e-005
      3.33208553e-002 7.61489989e-003 2.02941373e-002 7.09790587e-002
      -6.51809666e-003 -8.35576653e-002 -7.92143941e-002
      -8.26683827e-003 3.52903106e-003 2.33971737e-002 -8.47054273e-003
      2.39716489e-002 4.16748635e-002</_>
    <_>
      -9.33788717e-002 -5.89449182e-002 -1.49777727e-002
      -9.15026572e-003 -1.74287055e-002 -4.23108302e-002 7.50308298e-003
      -4.02140617e-002 -1.01812258e-001 1.79117545e-002 4.17150036e-002
      7.31634423e-002 2.12177802e-002 2.96754334e-002 5.20739332e-002
      1.36023173e-002 -2.57558729e-002 -4.68413308e-002 -6.77733570e-002
      -3.15836519e-002 5.10526150e-002 6.88508302e-002 4.65293787e-003
      2.10974067e-002 6.51929304e-002 -3.51621173e-002 -9.94920433e-002
      -8.25488067e-004 1.78276580e-002 2.49462537e-002 6.35737777e-002
      4.48270552e-002 7.58102834e-002 9.24756080e-002 -2.35136971e-002
      -7.11123124e-002 -2.77107029e-004 1.34614035e-002 3.18839774e-002
      -9.07590380e-004 -3.64569314e-002 4.00944166e-002 2.05766745e-002
      -5.95004074e-002 -4.81563322e-002 2.79829614e-002 1.89472847e-002
      2.94691715e-002 2.73400694e-002 -2.40050517e-002 6.83712959e-002
      6.26326352e-002 -1.98614988e-002 1.58491656e-002 -8.08839574e-002
      -1.41209010e-002 -2.83406042e-002 -1.51317008e-002
      -7.70806521e-002 -8.44057556e-003 3.95653918e-002 -2.85506900e-002
      -9.69666988e-002 -2.34475415e-002 -5.55606075e-002
      -7.03392252e-002 -3.52563336e-003 -6.02719486e-002 4.12365757e-002
      7.85081461e-002 5.42486496e-002 4.22856770e-002 6.61368892e-002
      6.23429241e-003 -6.43504690e-003 2.03493815e-002 3.72970942e-003
      6.18773885e-002 2.54398715e-002 1.78900510e-002 3.58353406e-002
      4.83913347e-002 2.47949306e-002 1.65900048e-002 4.05709594e-002
      2.51722969e-002 3.60352695e-002 -1.88400149e-002 -4.93625877e-003
      1.95026246e-003 -6.10423945e-002 -5.39704077e-002 -1.28944725e-001
      -4.85545173e-002 -2.25059316e-002 2.93409154e-002 4.31125723e-002
      7.45465010e-002 3.74673605e-002 -5.02871573e-002 -9.82055515e-002
      -1.03177488e-001 -1.05834045e-001 -9.22111422e-002
      -3.57492641e-002 1.70129631e-002 6.42347708e-002 1.94504242e-002
      2.48937327e-002 2.54462212e-002 2.64722425e-002 2.69001722e-002
      3.92240584e-002 1.59584079e-002 2.68460903e-003 1.06865112e-002
      1.45618105e-002 1.15091889e-003 -9.17146972e-004 1.32330051e-002
      -8.10777023e-003 3.20577361e-002 1.66370627e-002 2.49665556e-003
      1.69920139e-002 3.50631401e-003 -6.05694838e-002 -9.38007161e-002
      7.25687598e-004 -3.70744951e-002 -5.54613210e-002 -2.86894254e-002
      2.78905383e-003 1.08928762e-001 -1.49006536e-003 -1.05449155e-001
      -1.40058100e-001 -3.29648331e-002 -7.01775625e-002
      -6.23330958e-002 -4.29992117e-002 7.19627962e-002 1.29866287e-001
      2.89737023e-002 4.51060683e-002 7.67746009e-003 1.34709105e-002
      5.44463610e-003 -6.56697608e-004 3.46615575e-002 3.70521620e-002
      1.29159540e-001 1.09756164e-001 6.62742332e-002 -6.00767089e-003
      -2.55537895e-003 8.94814821e-006 8.87055323e-003 3.98907065e-002
      6.69470131e-002 1.34191632e-001 6.87212795e-002 -1.24598548e-001
      -1.05141811e-001 -5.88251203e-002 -3.44596319e-002
      -5.59715666e-002 6.61723680e-005 9.49733481e-002 5.88842407e-002
      -5.81177771e-002 -1.31502286e-001 -1.28549173e-001
      -1.06619805e-001 -4.70933132e-002 -8.80106688e-002
      -2.67487895e-002 2.19570752e-002 -1.30688995e-002 -1.03380807e-001
      2.26064678e-002 -1.70546155e-002 -1.09293405e-003 2.32796576e-002
      2.64176652e-002 7.27730915e-002 4.84181233e-002 1.81128651e-001
      1.09691136e-001 3.01636383e-002 5.85776009e-003 1.66856740e-002
      1.52863590e-002 4.48351214e-003 4.70132977e-002 7.19095469e-002
      1.49173677e-001 8.20218399e-002 -1.25990242e-001 -9.82729197e-002
      -6.96169883e-002 -1.88914854e-002 -5.13021350e-002 3.52463014e-002
      4.34072921e-003 -6.60892501e-002 -1.32232204e-001 -1.51854768e-001
      -8.47604126e-002 -1.49385852e-003 6.70367293e-003 -7.15059713e-002
      -9.42473672e-003 -8.83189309e-003 4.55665955e-004 -9.28647518e-002
      -1.67639274e-002 1.94053091e-002 4.24926504e-002 2.67362297e-002
      -1.42384470e-002 6.54052421e-002 5.84414555e-003 8.14533234e-002
      2.32243463e-002 1.03009101e-002 4.25516590e-002 6.24550283e-002
      7.16281161e-002 9.46471319e-002 1.47338569e-001 4.63309176e-002
      -1.61405802e-002 -1.70110092e-002 -1.26354113e-001
      -2.82346364e-002 2.39597112e-002 -3.79037764e-003 -7.40327910e-002
      -5.10641523e-002 -4.13107052e-002 -7.01620942e-003
      -1.01415575e-001 -3.09105534e-002 1.46136340e-002 4.24527116e-002
      2.96919812e-002 3.39750126e-002 6.59703836e-002 -7.23847523e-002
      -5.98961413e-002 -9.14499834e-002 -4.64343280e-002
      -3.58687118e-002 3.99839208e-002 5.36618009e-002 7.27824345e-002
      7.53834322e-002 8.16776603e-002 -1.91212650e-002 -5.91889508e-002
      -7.76189193e-002 -8.50929122e-004 -5.32942005e-002 7.55795091e-002
      1.04686901e-001 8.17086399e-002 1.06653154e-001 7.46122189e-003
      -6.83215410e-002 -6.71874210e-002 -7.95517936e-002
      -2.80088522e-002 -1.79504473e-002 2.40289811e-002 7.19493702e-002
      6.60896748e-002 -4.08494435e-002 -7.18590245e-002 -1.26762614e-001
      -8.46949071e-002 -1.03534602e-001 -6.07342226e-003 3.84283140e-002
      1.11664966e-001 1.15585789e-001 2.27751546e-002 -5.17453812e-002
      -3.86291668e-002 -1.07715856e-002 -4.80231643e-002 2.04551220e-002
      -4.12047794e-003 4.25170222e-003 3.65722999e-002 3.08460230e-003
      -2.27703676e-002 -3.89156118e-002 -3.72288041e-002
      -9.31746140e-003 5.71583584e-002 6.33917609e-003 5.26210740e-002
      5.78405447e-002 7.69105554e-002 5.29587778e-005 -1.00604914e-001
      -7.50311837e-002 -9.15581807e-002 -1.52565967e-002 8.59491825e-002
      1.17681026e-002 7.21275359e-002 2.23065969e-002 -8.50512236e-002
      -3.35254706e-002 -8.47356915e-002 -2.96089835e-002 1.47942482e-002
      -7.46099185e-003 -6.29280042e-003 4.59567197e-002 6.61306456e-002
      -1.65661704e-002 -9.44732688e-003 -4.54888679e-002
      -1.09598842e-002 1.74941700e-002 -2.31314320e-002 2.59388741e-002
      8.21557790e-002 1.00579858e-001 2.18982529e-002 -8.51925388e-002
      -9.17516500e-002 -5.28532378e-002 -6.81062117e-002
      -7.64711052e-002 -4.03682329e-002 9.91190746e-002 1.28562614e-001
      3.55021469e-002 -1.66432913e-002 -1.11901827e-001 -1.91280395e-002
      4.64066118e-003 -3.82105112e-002 9.30599216e-003 7.01724216e-002
      1.08187906e-001 2.16342416e-002 -2.87866890e-002 -7.36278296e-002
      -5.65306395e-002 -9.79482159e-002 -1.21932521e-001
      -6.62937611e-002 6.74440488e-002 9.40431878e-002 -1.80841647e-002
      -6.74121380e-002 -5.24284057e-002 -2.12592240e-002
      -3.04411948e-002 -2.58708335e-002 1.47112422e-002 1.25192374e-001
      1.56426057e-001 3.93632948e-002 -1.39581189e-001 -1.02296226e-001
      -3.68369594e-002 -3.41118425e-002 -3.23720947e-002 3.06425951e-002
      1.17341228e-001 9.70695913e-002 2.35895794e-002 -6.91885427e-002
      -6.55636266e-002 -2.17644032e-002 -5.60202636e-002
      -7.95724690e-002 -8.56624078e-003 1.30051658e-001 1.23957261e-001
      -3.73386554e-002 -1.81896687e-002 -5.29069379e-002
      -3.36365029e-002 -7.08321854e-002 -3.98485437e-002 1.47990407e-002
      6.30586296e-002 5.72161227e-002 -3.18455994e-002 -6.60494417e-002
      -4.57462482e-002 -4.73153405e-002 -4.46963459e-002
      -4.84371185e-002 3.54623348e-002 1.63651556e-001 1.00792967e-001
      1.56867933e-002 -3.89701128e-002 -1.56341325e-002 -5.11318967e-002
      -5.83527572e-002 -6.96846843e-002 -5.62676461e-003 3.65345106e-002
      -1.23941088e-002 -4.05304767e-002 3.91859151e-002 2.17161719e-002
      -2.76895124e-003 -6.43499047e-002 -9.60185900e-002
      -1.17180943e-002 6.07335828e-002 1.16982851e-002 4.11999077e-002
      3.65779065e-002 3.89731228e-002 -4.25836891e-002 -1.24248825e-001
      -1.02010407e-001 9.47763305e-003 5.94276078e-002 -1.40460394e-002
      3.39559428e-002 3.57288541e-003 4.27518673e-002 1.03756078e-002
      -3.73880751e-002 -6.24650270e-002 8.91581737e-003 3.86112481e-002
      -1.93935018e-002 -1.57660693e-002 1.11435382e-002 3.23279351e-002
      6.86368570e-002 1.45496370e-003 -1.13577433e-001 -4.83944453e-002
      -4.90545342e-003 8.23375490e-003 -2.06086282e-002 4.60041314e-002
      1.11443177e-001 4.60780971e-002 -4.62894067e-002 -6.33000284e-002
      1.12122484e-002 8.49252939e-002 1.93088632e-002 1.50873717e-002
      3.56203578e-002 4.47075553e-002 8.21085200e-002 -4.83940821e-003
      -7.46443942e-002 1.64614141e-003 8.63466561e-002 4.44073975e-002
      -4.90161404e-003 -1.12985205e-002 -2.84259934e-002 2.22934708e-002
      1.03740953e-003 -9.89172310e-002 -6.29901662e-002 5.08356132e-002
      6.79308102e-002 -1.31133497e-002 4.10751030e-002 1.82557702e-002
      4.98635024e-002 3.51135954e-002 3.48582603e-002 1.43354088e-001
      6.66630939e-002 7.38522708e-002 3.24798026e-003 -6.18457096e-003
      -2.16440614e-002 3.49411890e-002 -8.17715563e-003 -6.95501864e-002
      -6.23683408e-002 3.83061394e-002 1.44269746e-002 -3.45588326e-002
      6.71975431e-004 -4.87630069e-003 1.40765235e-002 1.65895559e-002
      3.17091085e-002 5.18858545e-002 6.18028641e-002 -5.26794652e-003
      -6.29749242e-003 -1.12966476e-002 -2.78805271e-002 7.71315303e-003
      -3.46283652e-002 1.43073546e-002 7.45611042e-002 1.41448565e-002
      -6.32261261e-002 -4.50610518e-002 -4.19200119e-003
      -4.91098464e-002 -8.50937143e-002 -3.41561772e-002 2.44011711e-002
      1.11605622e-001 1.17000893e-001 -3.69186816e-003 -4.20832671e-002
      1.20663848e-002 1.46387916e-004 2.36830246e-002 -7.40049109e-002
      9.29950457e-003 4.57709618e-002 2.72411034e-002 -6.72163144e-002
      -2.97639929e-002 2.23860145e-002 -3.30926925e-002 -3.07101421e-002
      -4.87961918e-002 1.70009658e-002 6.05838597e-002 5.61297759e-002
      -3.69050715e-004 -9.26418230e-003 -5.59567995e-002
      -6.66358173e-002 -7.99392089e-002 -7.58288726e-002 1.38198258e-002
      2.93710846e-002 8.47872496e-002 4.45497707e-002 -6.82011545e-002
      -2.08019931e-002 -4.86142971e-002 -5.57920188e-002
      -5.62171713e-002 -1.55453319e-002 3.81786078e-002 1.27444014e-001
      1.60165891e-001 -3.68710719e-002 -2.56189127e-002 -4.18236032e-002
      -5.73923737e-002 -9.50466543e-002 -8.62572901e-003 1.19133461e-002
      3.67906727e-002 2.62021590e-002 -3.24786529e-002 -1.02815414e-002
      -2.76918919e-003 6.76970347e-004 -8.51433128e-002 -4.86244797e-004
      4.40953746e-002 9.25276056e-002 9.47596058e-002 -2.29350608e-002
      2.31427979e-002 -7.85405468e-003 -3.12240906e-002 -8.33364800e-002
      -7.22006559e-002 5.20022549e-002 7.89651126e-002 9.69671160e-002
      2.93051507e-002 7.41108647e-003 6.14562351e-003 -2.92624533e-002
      -8.80693942e-002 -1.29589602e-001 -5.13925068e-002 5.60878478e-002
      9.02003571e-002 5.36278337e-002 3.55854295e-002 5.20356037e-002
      -6.17867336e-003 -6.28171414e-002 -3.68305668e-002 2.29256488e-002
      4.55305800e-002 4.49498631e-002 -9.69893392e-003 5.79483025e-002
      3.13308798e-002 -2.47799773e-002 -8.34039450e-002 -9.09813195e-002
      -7.42810741e-002 -1.55920424e-002 2.49872282e-002 2.93561704e-002
      5.36430329e-002 2.10803449e-002 1.78131741e-002 -4.27206978e-002
      -8.87941644e-002 -1.31894629e-002 1.10417441e-001 9.68149155e-002
      6.13704734e-002 3.73823494e-002 4.47468273e-002 7.82002788e-003
      -6.80315867e-002 -9.39200372e-002 -2.96499990e-002 6.80169184e-003
      6.11025095e-002 4.81764376e-002 7.01219440e-002 2.97262799e-002
      2.64168214e-002 -4.76001799e-002 -5.99799454e-002 -4.86548916e-002
      3.78194712e-002 7.00880513e-002 8.64523649e-002 -7.38949631e-004
      1.86408944e-002 -1.57000870e-002 -6.54166490e-002 -6.13380969e-002
      -7.41550401e-002 1.50167861e-003 6.33740798e-002 1.92848332e-002
      9.60638821e-002 8.82747844e-002 2.70646494e-002 -2.88595017e-002
      -1.03475794e-001 -6.84018433e-003 5.38269170e-002 3.56633887e-002
      1.10270061e-001 1.14731453e-001 6.41597286e-002 -9.39076301e-003
      -4.60425243e-002 -1.21249340e-001 -9.87873413e-003 6.46587312e-002
      2.47887825e-003 1.21363729e-001 4.65460941e-002 5.63433766e-002
      2.34473981e-002 -4.91449377e-003 -9.12823305e-002 -3.33337672e-002
      1.26175759e-002 2.13297103e-002 4.17827293e-002 8.52458850e-002
      4.47857752e-002 5.01617454e-002 1.31627508e-002 -7.17966408e-002
      -2.43926998e-002 9.02856328e-003 -1.82372443e-002 8.84539187e-002
      6.46815524e-002 3.99449132e-002 -1.17678633e-002 -1.44852474e-002
      -7.13239238e-002 8.42841528e-003 7.10014626e-002 -9.06486157e-003
      4.65135947e-002 -1.61075722e-002 -4.39355010e-003 2.18384247e-002
      -1.46152368e-002 -1.33002788e-001 -6.60175271e-003 9.83562693e-002
      -2.31479816e-002 -2.37402357e-002 4.65190969e-002 2.23656241e-002
      2.76295636e-002 7.27884052e-003 -3.65218855e-002 1.72923096e-002
      5.17112538e-002 1.04547804e-003 6.33471385e-002 -1.10741118e-002
      -1.17544197e-002 8.86823982e-003 -2.74078995e-002 -6.26053214e-002
      3.10117900e-002 7.78600946e-002 -1.84489414e-002 5.61247393e-003
      -7.89589807e-003 -1.16127427e-003 4.51401398e-002 -7.25783268e-003
      -8.58540535e-002 -4.14084233e-002 1.44330069e-001 -6.84475526e-003
      -2.64581498e-002 2.53774095e-002 2.30282471e-002 4.07342352e-002
      1.91286523e-002 8.08775797e-002 8.27783272e-002 3.73416543e-002
      4.73965853e-002 2.22717132e-002 -1.37104765e-002 -1.25365965e-002
      1.73446741e-002 -3.47308591e-002 -9.18518305e-002 -5.40372021e-002
      8.07731971e-002 -8.98937881e-003 -1.83412042e-002 2.06757747e-002
      9.80161969e-003 3.26022878e-002 2.69382261e-002 3.15772407e-002
      7.57644475e-002 2.26324480e-002 9.78037808e-003 -7.54769240e-003
      2.00892873e-002 -2.25827098e-002 -1.06057860e-002 -6.16933964e-002
      4.41730674e-003 6.86819777e-002 2.33586431e-002 -9.62913185e-002
      -3.18731740e-002 -5.84958307e-003 -3.23028676e-002
      -1.19952857e-002 -6.59442097e-002 -4.57889400e-002 3.51068452e-002
      1.85493492e-002 -1.30224628e-002 -8.31216201e-003 6.58303872e-002
      -1.08618690e-002 -4.07153461e-003 -4.32855450e-003 3.78804654e-002
      8.43193904e-002 1.82484090e-002 -4.39843833e-002 2.13299207e-002
      5.03262728e-002 -1.59804970e-002 -3.00875250e-002 -1.28784906e-002
      -4.90343757e-002 1.44779934e-002 4.38846201e-002 1.01007121e-002
      2.78683733e-002 3.83285643e-003 -9.09470674e-003 -2.83693485e-002
      -6.84660301e-002 -3.63100097e-002 3.68278772e-002 8.03589635e-003
      2.84036454e-002 7.51208235e-003 -7.62610324e-003 2.53975531e-003
      -5.18819038e-003 -5.99500202e-002 -4.44253497e-002 6.68448210e-002
      4.58671600e-002 2.19016355e-002 -3.27479318e-002 2.64612045e-002
      1.11285911e-003 -1.98272783e-002 -3.55745070e-002 -3.38456184e-002
      -1.07795428e-002 4.82697971e-002 2.16817837e-002 2.37992778e-002
      1.35716489e-002 2.88579129e-002 2.21985728e-002 -2.61192825e-002
      -4.08803299e-002 1.79451648e-002 1.04957610e-001 5.13010584e-002
      1.21500585e-002 -1.37122143e-002 7.88271893e-003 -2.81789992e-002
      -3.87286954e-002 -1.38202999e-002 3.57907526e-002 2.43424475e-002
      1.57371275e-002 -4.01710458e-002 -8.06131121e-003 -8.31898861e-003
      -4.43331599e-002 -3.27785350e-002 -2.94926874e-002
      -1.07402556e-001 -3.82777862e-002 4.30752244e-003 -4.32566069e-002
      -1.51750734e-002 4.25480684e-004 6.88225962e-004 2.74719633e-002
      1.32308481e-003 1.70524456e-002 5.51604852e-002 4.36704867e-002
      -7.57076172e-003 -4.18784283e-002 -1.75720956e-002
      -2.67786859e-003 4.90811579e-002 -7.87227228e-003 -7.16134757e-002
      -1.64193064e-002 1.06595317e-002 -3.02690994e-002 1.96923502e-002
      3.95352533e-003 3.55837606e-002 1.02294818e-003 -4.33381572e-002
      -5.04787415e-002 4.80197445e-002 6.28163591e-002 3.25911380e-002
      3.92796844e-002 3.27755548e-002 1.46990232e-002 -2.14465838e-002
      -6.18586875e-002 -6.40495345e-002 6.53701136e-003 6.72068521e-002
      6.87289461e-002 2.92420015e-002 2.85664182e-002 5.32361865e-002
      8.63642246e-002 -5.31743355e-002 -5.71746007e-002 4.15426120e-002
      4.23060134e-002 3.31975110e-002 6.80547208e-002 2.46844292e-002
      -1.59184653e-002 -3.60152833e-002 -7.01140612e-002
      -6.79103807e-002 -7.57048745e-003 1.63199399e-002 5.34634851e-002
      3.45595516e-002 4.31461856e-002 3.91437374e-002 2.45915093e-002
      -4.35257778e-002 -1.79814473e-002 -2.92951353e-002 4.87375073e-002
      5.05698845e-002 2.67163943e-002 3.55554260e-002 6.31820783e-002
      6.79874122e-002 -5.27290925e-002 -7.25786090e-002 -8.89116083e-004
      8.66305456e-003 6.00159988e-002 4.47076038e-002 8.42492934e-003
      -4.23954241e-002 -2.31072437e-002 -2.41704639e-002 3.45429443e-002
      -7.65153323e-004 3.68737131e-002 5.27850762e-002 2.39659864e-002
      9.29446239e-003 -3.02128121e-002 2.21334156e-002 -2.17147265e-002
      -5.72105274e-002 3.03367851e-003 -1.25227664e-002 4.73634787e-002
      2.68515591e-002 1.97476167e-002 3.19760181e-002 5.09838834e-002
      -6.30795360e-002 2.92965993e-002 2.81482991e-002 7.81749282e-003
      3.79966088e-002 4.51442879e-003 -4.26249439e-003 -2.46466417e-003
      -2.27873176e-002 -4.58450690e-002 1.19394571e-001 3.02060694e-002
      1.01867914e-002 1.82981100e-002 -5.10425493e-003 -1.28148878e-002
      -1.41462917e-002 1.38266701e-002 -4.77348119e-002 -3.35479081e-002
      -6.78964984e-003 -1.14016337e-002 3.05718072e-002 4.45841812e-003
      -7.38349976e-003 -1.22629832e-002 -5.86184710e-002
      -4.59207930e-002 8.42101350e-002 -4.22101393e-002 -1.05998805e-002
      6.46136282e-003 -1.70662086e-002 -1.95064601e-002 -6.80809328e-003
      -2.91690454e-002 -2.67429631e-002 5.46733513e-002 8.95820931e-002
      1.86723918e-002 -5.65644167e-003 5.13145141e-003 -9.44811106e-003
      1.58316009e-002 1.11718075e-002 2.38939580e-002 4.09453735e-002
      3.45627815e-002 3.19449119e-002 7.75811868e-003 -1.33728841e-002
      -3.87678556e-002 -2.19927672e-002 -5.04736714e-002
      -1.34771550e-002 4.71616834e-002 6.02839561e-003 -2.35944819e-002
      -3.33489366e-002 -9.83442087e-003 -2.54593585e-002 4.69793100e-003
      4.01904900e-003 5.01676686e-002 2.19925065e-002 4.80348207e-002
      -7.55587500e-003 -1.38617745e-002 7.13421330e-002 -5.15363005e-004
      3.87206301e-003 3.34621058e-003 1.52781894e-002 1.96931418e-002
      1.25363991e-002 -9.69121084e-002 8.93766002e-004 5.87339997e-002
      1.27224224e-002 -7.84319127e-004 1.03915744e-002 -4.13749889e-002
      -5.92206642e-002 7.78488368e-002 -9.91719496e-003 -1.82459746e-002
      4.73020598e-002 7.30252499e-003 1.48755719e-003 -1.23320268e-002
      -2.86815260e-002 -4.28015878e-003 1.98597312e-002 -4.23180871e-002
      -1.13492096e-002 1.04046743e-002 6.44404441e-004 2.35110503e-002
      -1.26753738e-002 3.56474891e-002 -4.64366225e-004 4.90486436e-002
      2.75001526e-002 3.37240240e-003 1.59633681e-002 1.01137953e-002
      5.54516213e-003 -6.99269911e-003 -5.15281670e-002 -3.27250138e-002
      7.83819407e-002 2.32640700e-003 8.88495240e-003 1.17181120e-002
      2.73610819e-002 2.87571154e-003 -1.35050043e-002 -2.12536892e-003
      -3.91761459e-005 9.68156084e-002 8.78906026e-002 3.10376436e-002
      -3.77810560e-002 -2.18022037e-002 -2.33244486e-002
      -3.44452970e-002 -4.18022200e-002 -2.63841990e-002 7.84201548e-002
      4.63555790e-002 -1.16038667e-002 -6.76279739e-002 -3.25982943e-002
      -6.43531904e-002 -2.47850120e-002 -1.19263321e-001
      -1.46865482e-002 4.09226157e-002 -4.42149825e-002 -7.45498464e-002
      -4.53685934e-005 -2.46217172e-003 7.13975634e-003 5.33623286e-002
      -3.27682607e-002 5.97334001e-003 9.98654068e-002 7.63576105e-002
      7.90718105e-003 -1.70482919e-002 -1.50096240e-002 1.67386420e-002
      5.23613058e-002 -3.29597779e-002 -3.77809964e-002 2.11960766e-002
      2.32630838e-002 -4.23979480e-003 -2.56341249e-002 -2.83173844e-002
      -4.47551198e-002 4.06788290e-002 -2.78633367e-002 4.62953374e-002
      2.24091038e-002 -6.65034577e-002 -6.13999441e-002 -6.01219311e-002
      -2.68173274e-002 -5.19506149e-002 -4.93545830e-002
      -4.76311371e-002 2.94297542e-002 4.39773761e-002 -5.46767414e-002
      -7.20464811e-002 1.65881626e-002 3.73743773e-002 4.57182080e-002
      1.01687856e-001 -5.50258942e-002 -6.70423731e-002 1.33194635e-002
      2.35420056e-002 1.53841563e-002 3.13481018e-002 2.69024633e-002
      -1.78889092e-002 -4.94890511e-002 -3.42279077e-002
      -2.62693968e-002 -1.31478941e-004 4.63599525e-003 2.05340497e-002
      2.47093476e-002 6.12565093e-002 1.78373829e-002 6.93765562e-003
      -4.60087433e-002 -2.48176455e-002 1.04492947e-001 5.72433062e-002
      9.36945807e-003 1.25871012e-002 3.17263715e-002 2.57785115e-002
      -2.91791582e-003 -4.34314236e-002 -8.53327885e-002 1.81590188e-002
      4.45315726e-002 1.83853377e-002 2.97442358e-002 4.83287702e-004
      -6.07419573e-002 -3.59885059e-002 1.56179001e-003 7.58631602e-002
      1.03528276e-002 1.29240258e-002 2.88480632e-002 6.39525661e-003
      -3.72522995e-002 -6.97360635e-002 -3.65225598e-002 2.62452569e-002
      -2.41257530e-002 -3.08932029e-002 -3.29162851e-002 3.70471948e-003
      -1.45073142e-002 -1.59834065e-002 -1.46478154e-002 3.96567881e-002
      3.36807296e-002 7.72502553e-003 -5.47685055e-003 3.12638134e-002
      9.66533087e-003 2.42823791e-002 -3.86045054e-002 -8.04917067e-002
      -2.68941280e-002 -8.73282645e-003 2.95501892e-002 -2.51852162e-002
      1.22105377e-003 1.90907065e-002 -4.75253426e-002 -5.77526353e-002
      -6.08149394e-002 -1.24861486e-003 3.71634141e-002 -6.61999220e-003
      -4.18554582e-002 -4.12583202e-002 -2.14848872e-002
      -1.78606734e-002 -3.61034344e-003 -3.24267261e-002
      -3.51525210e-002 6.34602504e-003 3.93693708e-002 -2.00977512e-002
      -2.14639977e-002 -7.85744470e-003 3.56485285e-002 -3.04442681e-002
      -8.92092958e-002 4.95191291e-003 2.93762013e-002 3.65351327e-002
      -2.84411553e-002 -1.54527277e-002 1.51852109e-002 1.12862969e-002
      -2.13715862e-002 -5.49933128e-002 -3.56878876e-003 2.72656674e-003
      3.98026258e-002 -2.25618538e-002 -3.05650439e-002 -1.40068657e-003
      9.81754530e-003 8.48465227e-003 2.02813018e-002 6.70908540e-002
      -6.11782214e-003 7.96805769e-002 -7.13202870e-003 -3.59382555e-002
      -2.15513166e-002 2.44270172e-003 -8.77991784e-003 1.95098370e-002
      2.99789533e-002 -4.92449757e-003 6.31656423e-002 1.60299297e-002
      -1.70311313e-002 -1.24125956e-002 5.06249405e-002 5.13177514e-002
      6.46510050e-002 1.48308454e-002 -1.57824177e-002 5.45344166e-002
      -4.82195616e-002 -5.99651635e-002 -2.28732545e-002 1.14089735e-002
      -6.05165539e-003 1.65353268e-002 -5.11206612e-002 -3.20389383e-002
      8.44437107e-002 -1.32378899e-002 -3.67456526e-002 -2.85129491e-002
      4.79571745e-002 -1.18755233e-002 4.66796709e-003 4.37673507e-003
      -2.28181574e-002 4.80338279e-003 -5.59719391e-002 7.42113311e-003
      -7.11073447e-003 -3.73276765e-003 -1.79842915e-002
      -5.50205866e-003 -4.11315635e-002 9.13163740e-003 2.67016497e-002
      3.50787863e-002 3.15791853e-002 4.33939099e-002 1.05788326e-002
      -3.29243839e-002 1.48881115e-002 2.46782359e-002 2.52458490e-002
      6.05063401e-002 -1.82895698e-002 -6.92925826e-002 -2.45174742e-003
      4.87484075e-002 -5.03410539e-003 -4.71834652e-003 -1.53729683e-002
      -5.07748453e-003 -6.39668256e-002 -5.31084314e-002
      -3.45306657e-002 3.71974520e-002 5.42356679e-003 -7.72795267e-003
      -2.05942933e-002 -2.01288098e-003 6.72053546e-002 3.69724780e-002
      4.99158427e-002 -4.50251810e-003 9.17897280e-003 -4.67433222e-002
      -3.08349431e-002 -5.47224469e-002 6.42708242e-002 1.07666895e-001
      1.37136104e-002 5.30046187e-002 -5.28503209e-002 -1.08623631e-001
      2.70585753e-002 -3.25670757e-004 -2.10801475e-002 -2.53762957e-002
      9.46317147e-003 -1.33466115e-002 -1.78290159e-002 -6.11142665e-002
      -5.02275815e-003 -3.48852091e-002 -3.74613255e-002
      -4.17409614e-002 1.48947146e-002 6.88676685e-002 -1.52066117e-003
      2.44962014e-002 -1.22519843e-001 -9.12348256e-002 -2.27844436e-002
      -2.10578218e-002 -2.65349746e-002 3.85434479e-002 9.25219506e-002
      8.55503678e-002 1.07703686e-001 -3.36766383e-003 -7.47574568e-002
      -5.11611700e-002 -3.31257563e-003 -6.99187368e-002
      -3.38391922e-002 7.55568221e-003 7.26573542e-002 1.18614137e-001
      -3.14170984e-003 -8.15375000e-002 -2.40824148e-002
      -2.92374194e-002 -4.86645326e-002 -5.10604819e-003 1.66393220e-002
      1.32212825e-002 8.04482326e-002 -6.37454838e-002 -1.01197593e-001
      -6.43039197e-002 -7.76064098e-002 -9.75455120e-002
      -4.92658466e-002 -7.48131366e-004 -1.99883468e-002 7.87510797e-002
      -4.14824784e-002 -1.02704145e-001 -1.50577594e-002 2.65727360e-002
      -2.79005654e-002 -3.59023623e-002 -2.57057436e-002 2.68712379e-002
      1.05943412e-001 -2.44225319e-002 -6.08720854e-002 -6.27588779e-002
      -3.38438489e-002 -1.81065388e-002 -4.56665903e-002
      -4.28704955e-002 -5.87808229e-002 4.77689356e-002 2.40616947e-002
      -2.84681227e-002 -4.57973890e-002 -3.60875502e-002
      -2.89891101e-002 5.38984453e-003 4.80797924e-002 1.02586476e-002
      5.99042736e-002 -4.69456986e-002 -5.51938936e-002 -7.47089088e-002
      -5.99401742e-002 -1.39034707e-002 2.28793151e-003 4.41753939e-002
      2.02655233e-002 3.16225365e-002 2.37646955e-003 -8.56743380e-002
      -4.25860286e-002 -3.37703526e-002 -6.93341112e-003 2.86562070e-002
      2.24490720e-003 -7.27009773e-003 1.36042922e-003 3.46021354e-002
      1.96933164e-003 -3.52642052e-002 -2.03892607e-002 -5.57338484e-002
      3.56035627e-004 2.46051438e-002 2.48796586e-002 -2.63323095e-002
      -2.99259033e-002 -4.21481431e-002 -7.07918406e-002
      -4.19907905e-002 -7.00920224e-002 7.13240542e-003 6.25143349e-002
      7.54560530e-002 5.59392534e-002 -2.56051663e-002 -6.95140734e-002
      -7.50277489e-002 -7.59983948e-003 -1.02352956e-002 1.78499613e-002
      6.24681525e-002 2.38986127e-002 -2.38393433e-002 -8.56349319e-002
      -8.20850208e-002 -2.46787593e-002 1.01385626e-003 -6.10332973e-002
      2.21952554e-002 4.49081026e-002 1.94231179e-002 -3.25409621e-002
      -2.61371490e-002 -5.35389222e-002 -6.66921437e-002
      -3.83811295e-002 -6.53177220e-003 -9.55695845e-003 5.84474690e-002
      -1.22909434e-002 -4.92972657e-002 -2.79818587e-002
      -3.45653184e-002 -2.36067511e-002 3.96763869e-002 1.59508549e-002
      4.70674224e-002 7.13340715e-002 1.10765360e-002 -5.80346808e-002
      -6.34916127e-002 -4.05730568e-002 -6.93799555e-002 2.11404245e-002
      -2.26354483e-003 -2.69208793e-002 2.78032795e-002 1.42690279e-002
      -4.25933450e-002 -3.27747390e-002 -7.21640438e-002 2.87386235e-002
      4.08531427e-002 5.23459502e-002 -1.80942733e-002 -2.43646037e-002
      4.16386761e-002 -1.88094284e-002 -2.38817558e-002 1.33284396e-002
      2.48101372e-002 -2.07770877e-002 -2.14748811e-002 -3.34141590e-002
      -2.68123299e-003 9.34663787e-002 1.29224248e-002 -3.31458040e-002
      5.05239749e-003 9.74880718e-003 8.22218508e-002 5.68963476e-002
      -4.11218144e-002 3.10075451e-002 6.99120015e-002 1.59067959e-002
      -1.80289112e-002 -2.48414502e-002 6.28148243e-002 2.57899128e-002
      5.86870834e-002 -3.32218260e-002 3.54969501e-002 4.09809016e-002
      3.71816568e-002 -3.86241190e-002 4.92290482e-002 -2.20869575e-002
      -2.68092640e-002 -1.17561994e-002 -1.66276470e-002
      -8.00929032e-003 3.80671471e-002 2.54929252e-002 1.53281298e-002
      -6.88325167e-002 1.93351768e-002 -1.18156280e-002 1.23581486e-002
      9.90909245e-003 4.14206572e-002 3.43028945e-003 2.39875428e-002
      -8.39765090e-003 3.16570699e-003 -5.50103039e-002 -5.15665151e-002
      -3.83675657e-002 -4.40728553e-002 -3.10468748e-002 3.98810357e-002
      -1.26589639e-002 4.02792022e-002 -9.64794606e-002 -2.61621922e-002
      -4.51621078e-002 -3.07663232e-002 1.22840069e-002 1.09148130e-003
      7.22381696e-002 5.49454838e-002 -1.57307088e-002 -4.28535007e-002
      1.84534360e-002 9.48196161e-004 -1.73195694e-002 -7.53279310e-005
      1.58841535e-002 9.97978449e-003 4.99396026e-002 -6.02338687e-002
      2.32554115e-002 -5.95132064e-004 -1.73827559e-002 -6.34537488e-002
      -5.72751858e-004 3.07361968e-002 1.59020480e-002 3.66748720e-002
      -7.71674365e-002 -7.54019395e-002 2.26902831e-002 1.26892026e-003
      1.13873174e-002 2.66017523e-002 4.47208248e-002 6.60671219e-002
      9.72313136e-002 1.35891261e-002 4.08148989e-002 -4.10898700e-002
      1.79407338e-003 1.65065527e-002 3.33408988e-003 6.61795288e-002
      3.39873955e-002 4.32254327e-003 -4.54294868e-002 -1.70105416e-002
      -1.02520864e-002 -1.89445745e-002 -2.77236775e-002 1.59271935e-004
      1.84305292e-002 -2.56930143e-002 -8.77926778e-003 -4.75402847e-002
      -6.39385879e-002 -3.45168449e-002 -3.85027193e-002 1.00067444e-002
      3.36167477e-002 6.68156594e-002 4.48626652e-003 9.85979661e-003
      -2.40252204e-002 -3.67121771e-002 -2.14888975e-002 9.20666568e-003
      3.35269719e-002 2.02304926e-002 1.00648254e-001 4.51573730e-002
      2.12042257e-002 -7.29991198e-002 -2.47801393e-002 -1.26100369e-002
      4.14169393e-002 7.01996461e-002 5.75814992e-002 1.48875028e-001
      5.05899414e-002 4.84400950e-002 -4.84085903e-002 -1.96776725e-002
      -5.68807498e-002 -2.10283473e-002 4.10229862e-002 6.63092062e-002
      8.96135643e-002 1.80285871e-002 1.76771693e-002 -5.37001528e-002
      -4.22748029e-002 -3.53263803e-002 3.91060114e-003 1.38977412e-002
      6.84161112e-002 1.31569639e-001 1.46373976e-002 1.86851192e-002
      -3.37109417e-002 -1.03114687e-001 -6.66891262e-002 9.50633548e-003
      4.93943021e-002 3.67348529e-002 6.40751123e-002 -3.74576971e-002
      1.02839665e-002 -4.84230779e-002 -1.42994905e-002 -6.82014152e-002
      1.58637110e-002 4.34309617e-002 4.09859046e-002 9.48077962e-002
      -1.01778591e-002 3.96307334e-002 -4.75538410e-002 -7.18560740e-002
      -1.84738403e-003 2.16272492e-002 -9.97839868e-003 2.99910288e-002
      9.79898199e-002 6.42647296e-002 4.96016145e-002 9.39858053e-003
      -2.70471722e-002 3.10546695e-003 3.80268320e-002 4.71648462e-002
      1.22665148e-002 6.95002377e-002 2.06236802e-002 -2.38744896e-002
      -7.62950405e-002 -1.84777342e-002 -2.69427281e-002 3.36945727e-002
      5.05426601e-002 5.33139519e-002 7.31702000e-002 4.70965281e-002
      3.87869962e-002 -6.36000261e-002 -4.52514626e-002 -1.98421385e-002
      1.30706830e-002 2.55421121e-002 2.24229041e-002 3.47699933e-002
      -8.92987195e-003 2.66834367e-002 -5.88664487e-002 -5.28928787e-002
      2.29054466e-002 6.54102564e-002 3.10527794e-002 2.16773730e-002
      6.68788478e-002 1.99810006e-002 1.94928106e-002 -4.91747782e-002
      -2.22188998e-002 1.82997677e-002 8.88697803e-002 3.15966271e-002
      -3.65863293e-002 1.77042615e-002 5.38292713e-002 1.41123356e-002
      -1.66599378e-002 -4.26276140e-002 2.50803065e-002 8.39760900e-003
      -2.43571941e-002 6.08256436e-004 9.53147635e-002 7.13177398e-003
      7.83907175e-002 -9.62603744e-003 2.60471981e-002 4.79816794e-002
      3.58682945e-002 -5.35875047e-003 -6.86906353e-002 1.05022684e-001
      9.46833789e-002 5.25521375e-002 -4.97680567e-002 2.04854901e-003
      6.61903024e-002 1.32951468e-001 3.76229174e-002 -1.29424399e-002
      4.00381237e-002 7.80972913e-002 -1.41266466e-003 -3.30227800e-002
      1.50389820e-002 1.34628847e-001 1.50111541e-001 1.16032928e-001
      1.79338530e-002 3.00901104e-002 -3.08605959e-003 4.35014302e-003
      -8.53300840e-002 5.17488606e-002 1.10565841e-001 1.04356214e-001
      5.39840497e-002 -7.41268620e-002 7.11163729e-002 4.84693833e-002
      -2.36215834e-002 -8.59331712e-002 2.53447480e-002 1.10389754e-001
      1.11566827e-001 9.07865092e-002 -3.53981704e-002 7.19657401e-004
      -3.08613479e-002 -4.07031327e-002 -1.34805769e-001 1.94386616e-002</_></support_vectors>
  <decision_functions>
    <_>
      <sv_count>1</sv_count>
      <rho>-2.0790446574166337e+000</rho>
      <alpha>
        1.</alpha>
      <index>
        0</index></_>
    <_>
      <sv_count>1</sv_count>
      <rho>-1.5234138105063397e+000</rho>
      <alpha>
        1.</alpha>
      <index>
        1</index></_>
    <_>
      <sv_count>1</sv_count>
      <rho>-3.8552472051136993e-001</rho>
      <alpha>
        1.</alpha>
      <index>
        2</index></_></decision_functions></my_svm>
</opencv_storage>
